{"learner":{"attributes":{"best_iteration":"99","best_ntree_limit":"100","scikit_learn":"{\"n_estimators\": 100, \"objective\": \"reg:squarederror\", \"max_depth\": null, \"max_leaves\": null, \"max_bin\": null, \"grow_policy\": null, \"learning_rate\": null, \"verbosity\": null, \"booster\": null, \"tree_method\": null, \"gamma\": null, \"min_child_weight\": null, \"max_delta_step\": null, \"subsample\": null, \"sampling_method\": null, \"colsample_bytree\": null, \"colsample_bylevel\": null, \"colsample_bynode\": null, \"reg_alpha\": null, \"reg_lambda\": null, \"scale_pos_weight\": null, \"base_score\": null, \"missing\": NaN, \"num_parallel_tree\": null, \"random_state\": null, \"n_jobs\": null, \"monotone_constraints\": null, \"interaction_constraints\": null, \"importance_type\": null, \"gpu_id\": null, \"validate_parameters\": null, \"predictor\": null, \"enable_categorical\": false, \"feature_types\": null, \"max_cat_to_onehot\": null, \"max_cat_threshold\": null, \"eval_metric\": null, \"early_stopping_rounds\": null, \"callbacks\": null, \"_estimator_type\": \"regressor\"}"},"feature_names":[],"feature_types":[],"gradient_booster":{"model":{"gbtree_model_param":{"num_parallel_tree":"1","num_trees":"100","size_leaf_vector":"0"},"tree_info":[0,0,0,0,0,0,0,0,0,0,0,0,0,0,0,0,0,0,0,0,0,0,0,0,0,0,0,0,0,0,0,0,0,0,0,0,0,0,0,0,0,0,0,0,0,0,0,0,0,0,0,0,0,0,0,0,0,0,0,0,0,0,0,0,0,0,0,0,0,0,0,0,0,0,0,0,0,0,0,0,0,0,0,0,0,0,0,0,0,0,0,0,0,0,0,0,0,0,0,0],"trees":[{"base_weights":[4.5304996E4,2.7324643E4,4.7302363E4,3.386376E4,1.7507732E4,5.972803E4,4.3751074E4,1.9056584E4,4.12583E4,1.3212236E4,1.8611514E4,4.540504E4,6.348713E4,3.324551E4,4.6510508E4,1.4364983E4,2.0275824E4,5.0754566E4,3.1733812E4,9.971814E3,1.4267871E4,2.0318266E4,1.6888744E4,3.465065E4,4.897307E4,6.1525137E4,8.107667E4,2.5337418E4,3.5878035E4,2.7052363E4,4.768905E4,1.0889247E4,1.5470952E4,2.119944E4,1.7159639E4,3.8714426E4,5.388193E4,2.4076645E4,3.375663E4,7.104651E3,1.1889337E4,1.5509038E4,1.2963573E4,2.1238156E4,1.713984E4,1.7647248E4,1.4317517E4,2.5220246E4,4.1436383E4,4.7453934E4,6.237838E4,6.4320984E4,5.2272977E4,8.472223E4,6.8533234E4,1.8445318E4,3.0334633E4,2.0770584E4,3.6790758E4,2.3635062E4,3.0446303E4,5.210179E4,3.9963562E4,7.513683E3,1.2772114E4,1.4624173E4,1.6733447E4,1.806147E4,2.2216783E4,1.4765081E4,1.7877227E4,2.9248014E4,4.17284E4,5.6126113E4,4.528983E4,1.826452E4,2.5926941E4,3.5177383E4,2.8341768E4,5.8115864E3,7.973057E3,1.8268285E4,2.21995E4,1.4758687E4,1.7851828E4,1.5112908E4,1.8468209E4,1.2297242E4,1.49237295E4,2.1275994E4,2.9007852E4,3.6840418E4,4.4349777E4,4.3552938E4,5.0533824E4,5.5299984E4,6.731826E4,4.5286566E4,5.456408E4,7.253516E4,8.867026E4,5.8749195E4,7.146822E4,1.5766646E4,2.14454E4,1.7480764E4,3.1101088E4,1.812429E4,2.332618E4,4.0203004E4,3.0806818E4,2.4718598E4,1.9979879E4,3.1840508E4,2.5651299E4,7.759115E4,5.0824023E4,3.2634115E4,4.7287254E4],"categories":[],"categories_nodes":[],"categories_segments":[],"categories_sizes":[],"default_left":[1,1,1,1,1,1,1,1,1,1,1,1,1,1,1,1,1,1,1,1,1,1,1,1,1,1,1,1,1,1,1,1,1,1,1,1,1,1,1,1,0,0,0,1,1,1,1,1,1,1,0,1,1,1,1,1,1,1,1,1,1,1,1,0,0,0,0,0,0,0,0,0,0,0,0,0,0,0,0,0,0,0,0,0,0,0,0,0,0,0,0,0,0,0,0,0,0,0,0,0,0,0,0,0,0,0,0,0,0,0,0,0,0,0,0,0,0,0,0],"id":0,"left_children":[1,3,5,7,9,11,13,15,17,19,21,23,25,27,29,31,33,35,37,39,41,43,45,47,49,51,53,55,57,59,61,63,65,67,69,71,73,75,77,79,-1,-1,-1,81,83,85,87,89,91,93,-1,95,97,99,101,103,105,107,109,111,113,115,117,-1,-1,-1,-1,-1,-1,-1,-1,-1,-1,-1,-1,-1,-1,-1,-1,-1,-1,-1,-1,-1,-1,-1,-1,-1,-1,-1,-1,-1,-1,-1,-1,-1,-1,-1,-1,-1,-1,-1,-1,-1,-1,-1,-1,-1,-1,-1,-1,-1,-1,-1,-1,-1,-1,-1,-1],"loss_changes":[2.6222285E12,4.6840834E11,2.898566E12,4.7922754E11,1.3612876E10,7.83798E11,1.4808577E12,8.071676E9,2.627658E11,1.9135693E9,6.487212E9,1.1499261E11,3.943317E11,2.2061724E11,9.273774E11,1.00397466E9,2.9691412E9,5.29641E10,2.1832139E10,7.4570445E8,5.2904755E8,3.033432E9,2.0135608E9,4.765293E10,4.3491262E10,2.6602373E11,4.71466E10,9.108901E10,1.0928469E11,2.613012E10,1.2995548E12,3.9342694E8,9.4208E4,2.4367596E9,1.999831E8,7.4816553E9,1.9787153E10,2.8495053E9,7.880966E9,2.4407296E7,0E0,0E0,0E0,2.155479E9,1.874903E8,1.5788605E9,1.471488E8,4.1783296E9,4.2710467E9,2.2465217E10,0E0,2.1239536E11,3.6296983E10,3.653501E10,3.4397225E9,8.670511E9,1.463799E10,2.667856E9,1.5241262E11,4.092461E9,6.9247304E9,7.8743024E11,7.437843E11,0E0,0E0,0E0,0E0,0E0,0E0,0E0,0E0,0E0,0E0,0E0,0E0,0E0,0E0,0E0,0E0,0E0,0E0,0E0,0E0,0E0,0E0,0E0,0E0,0E0,0E0,0E0,0E0,0E0,0E0,0E0,0E0,0E0,0E0,0E0,0E0,0E0,0E0,0E0,0E0,0E0,0E0,0E0,0E0,0E0,0E0,0E0,0E0,0E0,0E0,0E0,0E0,0E0,0E0,0E0,0E0],"parents":[2147483647,0,0,1,1,2,2,3,3,4,4,5,5,6,6,7,7,8,8,9,9,10,10,11,11,12,12,13,13,14,14,15,15,16,16,17,17,18,18,19,19,20,20,21,21,22,22,23,23,24,24,25,25,26,26,27,27,28,28,29,29,30,30,31,31,32,32,33,33,34,34,35,35,36,36,37,37,38,38,39,39,43,43,44,44,45,45,46,46,47,47,48,48,49,49,51,51,52,52,53,53,54,54,55,55,56,56,57,57,58,58,59,59,60,60,61,61,62,62],"right_children":[2,4,6,8,10,12,14,16,18,20,22,24,26,28,30,32,34,36,38,40,42,44,46,48,50,52,54,56,58,60,62,64,66,68,70,72,74,76,78,80,-1,-1,-1,82,84,86,88,90,92,94,-1,96,98,100,102,104,106,108,110,112,114,116,118,-1,-1,-1,-1,-1,-1,-1,-1,-1,-1,-1,-1,-1,-1,-1,-1,-1,-1,-1,-1,-1,-1,-1,-1,-1,-1,-1,-1,-1,-1,-1,-1,-1,-1,-1,-1,-1,-1,-1,-1,-1,-1,-1,-1,-1,-1,-1,-1,-1,-1,-1,-1,-1,-1,-1,-1],"split_conditions":[5.5E0,3.5E0,1.55E1,1.5E0,7.55E1,7.65E1,7.65E1,7.65E1,2.5E0,2.0135E3,4.5E0,2.0135E3,1.45E1,2.0135E3,1.75E1,2.0135E3,2.985E2,7.65E1,7.75E1,1.5E0,4.5E0,2.995E2,2.985E2,3.25E1,1.45E1,2.985E2,2.995E2,3.25E1,1.75E1,1.65E1,3.85E1,2.95E1,4.85E1,2.0135E3,2.0135E3,2.0135E3,1.05E1,2.0135E3,1.05E1,1.45E1,3.5668013E3,4.6527114E3,3.889072E3,2.0135E3,2.0135E3,2.0135E3,2.0135E3,1.65E1,9.5E0,9.5E0,1.8713514E4,2.0135E3,2.0135E3,2.0135E3,2.0135E3,1.75E1,1.75E1,1.65E1,3.85E1,2.985E2,2.995E2,1.85E1,4.45E1,2.254105E3,3.8316345E3,4.387252E3,5.020034E3,5.4184414E3,6.665035E3,4.4295244E3,5.363168E3,8.774404E3,1.25185205E4,1.6837834E4,1.3586949E4,5.479356E3,7.7780825E3,1.0553215E4,8.50253E3,1.743476E3,2.3919172E3,5.480486E3,6.65985E3,4.427606E3,5.355549E3,4.5338726E3,5.540463E3,3.6891729E3,4.477119E3,6.3827983E3,8.702355E3,1.1052126E4,1.3304934E4,1.3065882E4,1.5160147E4,1.6589996E4,2.0195479E4,1.3585971E4,1.6369224E4,2.1760547E4,2.6601078E4,1.762476E4,2.1440467E4,4.729994E3,6.4336206E3,5.2442295E3,9.330327E3,5.437287E3,6.997854E3,1.2060901E4,9.242046E3,7.4155796E3,5.993964E3,9.552152E3,7.69539E3,2.3277346E4,1.5247208E4,9.790235E3,1.4186177E4],"split_indices":[0,0,0,0,5,5,5,5,0,1,0,1,0,1,0,1,5,5,5,2,0,5,5,5,0,5,5,5,0,0,0,5,5,1,1,1,2,1,2,3,0,0,0,1,1,1,1,5,0,0,0,1,1,1,1,5,0,0,0,5,5,0,0,0,0,0,0,0,0,0,0,0,0,0,0,0,0,0,0,0,0,0,0,0,0,0,0,0,0,0,0,0,0,0,0,0,0,0,0,0,0,0,0,0,0,0,0,0,0,0,0,0,0,0,0,0,0,0,0],"split_type":[0,0,0,0,0,0,0,0,0,0,0,0,0,0,0,0,0,0,0,0,0,0,0,0,0,0,0,0,0,0,0,0,0,0,0,0,0,0,0,0,0,0,0,0,0,0,0,0,0,0,0,0,0,0,0,0,0,0,0,0,0,0,0,0,0,0,0,0,0,0,0,0,0,0,0,0,0,0,0,0,0,0,0,0,0,0,0,0,0,0,0,0,0,0,0,0,0,0,0,0,0,0,0,0,0,0,0,0,0,0,0,0,0,0,0,0,0,0,0],"sum_hessian":[7.305E4,7.305E3,6.5745E4,4.383E3,2.922E3,1.461E4,5.1135E4,1.461E3,2.922E3,6E2,2.322E3,3.04E3,1.157E4,1.064E4,4.0495E4,3.04E2,1.157E3,1.461E3,1.461E3,1.5E2,4.5E2,1.161E3,1.161E3,7.6E2,2.28E3,1.0413E4,1.157E3,2.66E3,7.98E3,2.314E3,3.8181E4,7.6E1,2.28E2,8.88E2,2.69E2,3.04E2,1.157E3,3.08E2,1.153E3,6.2E1,8.8E1,2.25E2,2.25E2,8.96E2,2.65E2,8.92E2,2.69E2,3.2E2,4.4E2,2.052E3,2.28E2,7.992E3,2.421E3,8.92E2,2.65E2,1.12E3,1.54E3,4.56E2,7.524E3,1.157E3,1.157E3,2.4297E4,1.3884E4,2.9E1,4.7E1,1.44E2,8.4E1,2.22E2,6.66E2,6.7E1,2.02E2,7.6E1,2.28E2,9.13E2,2.44E2,7.7E1,2.31E2,9.09E2,2.44E2,2.8E1,3.4E1,2.24E2,6.72E2,6.6E1,1.99E2,2.23E2,6.69E2,6.7E1,2.02E2,1.6E2,1.6E2,1.76E2,2.64E2,9.12E2,1.14E3,1.998E3,5.994E3,6.03E2,1.818E3,2.23E2,6.69E2,6.6E1,1.99E2,5.95E2,5.25E2,8.8E1,1.452E3,2.28E2,2.28E2,4.788E3,2.736E3,8.88E2,2.69E2,8.92E2,2.65E2,1.157E3,2.314E4,6.942E3,6.942E3],"tree_param":{"num_deleted":"0","num_feature":"15","num_nodes":"119","size_leaf_vector":"0"}},{"base_weights":[3.1721312E4,1.9151586E4,3.3117637E4,2.3732324E4,1.227471E4,4.1826086E4,3.0628738E4,1.3365168E4,2.8909557E4,9.542925E3,1.3189686E4,3.2655121E4,4.491057E4,2.3841197E4,3.281482E4,1.0399297E4,1.4367833E4,3.556357E4,2.223577E4,7.439345E3,1.0229397E4,1.4258794E4,1.1594695E4,2.5567258E4,3.5007625E4,3.850588E4,4.9173844E4,1.8280885E4,2.569248E4,3.518769E4,2.5853771E4,8.139395E3,1.1120838E4,1.5551048E4,1.2624467E4,2.7872193E4,3.812532E4,1.7346346E4,2.3888541E4,5.3421855E3,8.918189E3,9.291952E3,1.1257648E4,1.5555806E4,1.2939945E4,1.2656262E4,1.0506897E4,1.85962E4,3.0652225E4,3.181955E4,3.8613086E4,4.1567605E4,2.9291105E4,5.303749E4,4.3355953E4,1.3463688E4,2.186062E4,1.4848668E4,2.6347922E4,2.8306643E4,3.747996E4,2.0533514E4,2.7615768E4,5.720083E3,9.678927E3,1.0357575E4,1.2125888E4,1.41086045E4,1.6945346E4,1.1531967E4,1.365573E4,2.1222785E4,3.0004045E4,3.0557246E4,4.0604645E4,1.3312315E4,1.8638676E4,1.9149033E4,2.5441104E4,4.328705E3,6.175931E3,9.958655E3,7.712571E3,1.0086514E4,8.434607E3,1.2219167E4,1.0209533E4,1.4183903E4,1.6880139E4,1.2250017E4,1.4922415E4,1.3381711E4,1.1212685E4,9.536792E3,1.1425305E4,1.5576514E4,2.2013643E4,2.9508156E4,4.0211707E4,3.0825805E4,4.049454E4,3.3739777E4,4.1814234E4,3.589981E4,5.2860016E4,3.1716033E4,2.5642307E4,4.8424727E4,5.762331E4,3.9555547E4,4.7106047E4,1.1411493E4,1.5975352E4,2.4040117E4,1.765085E4,1.2969916E4,1.6672016E4,4.7809047E4,2.5671744E4,1.6199344E4,2.9037928E4,2.1436664E4,3.8451184E4,2.1305488E4,1.4496184E4,2.9669766E4,2.3668781E4],"categories":[],"categories_nodes":[],"categories_segments":[],"categories_sizes":[],"default_left":[1,1,1,1,1,1,1,1,1,1,1,1,1,1,1,1,1,1,1,1,1,1,1,1,1,1,1,1,1,1,1,1,1,1,1,1,1,1,1,1,1,1,1,1,1,1,1,1,1,1,1,1,1,1,1,1,1,1,1,1,1,1,1,0,0,0,0,0,0,0,0,0,0,0,0,0,0,0,0,0,0,0,0,0,0,0,0,0,0,0,0,0,0,0,0,0,0,0,0,0,0,0,0,0,0,0,0,0,0,0,0,0,0,0,0,0,0,0,0,0,0,0,0,0,0,0,0],"id":1,"left_children":[1,3,5,7,9,11,13,15,17,19,21,23,25,27,29,31,33,35,37,39,41,43,45,47,49,51,53,55,57,59,61,63,65,67,69,71,73,75,77,79,81,83,85,87,89,91,93,95,97,99,101,103,105,107,109,111,113,115,117,119,121,123,125,-1,-1,-1,-1,-1,-1,-1,-1,-1,-1,-1,-1,-1,-1,-1,-1,-1,-1,-1,-1,-1,-1,-1,-1,-1,-1,-1,-1,-1,-1,-1,-1,-1,-1,-1,-1,-1,-1,-1,-1,-1,-1,-1,-1,-1,-1,-1,-1,-1,-1,-1,-1,-1,-1,-1,-1,-1,-1,-1,-1,-1,-1,-1,-1],"loss_changes":[1.2815025E12,2.2985625E11,1.4237313E12,2.3491668E11,7.1802225E9,4.11845E11,7.5797784E11,4.1982525E9,1.2901207E11,9.881641E8,3.5639788E9,6.0482912E10,2.9657924E11,1.2779992E11,6.379243E11,5.1770163E8,2.052096E9,2.7743748E10,1.1400118E10,5.2611072E8,4.284498E8,2.0309934E9,8.866857E8,3.207725E10,3.0507532E10,1.22158055E11,1.451355E11,5.343884E10,6.6035122E10,4.5385725E11,9.16382E10,2.9474867E8,8.919859E7,1.05816064E9,3.4500608E8,4.594008E9,1.9286852E10,1.6964321E9,7.5334943E9,4.001997E7,5.7414656E7,1.1588198E8,1.3626163E8,9.469788E8,7.103529E8,3.128279E8,2.8483994E8,3.6920689E9,4.620845E9,1.1432755E10,1.872901E10,2.0803276E11,8.866497E9,8.048974E10,3.5519463E10,6.6782495E9,1.5962538E10,1.61647E9,1.2664858E11,6.337436E10,3.362196E11,1.1114512E10,5.917691E10,0E0,0E0,0E0,0E0,0E0,0E0,0E0,0E0,0E0,0E0,0E0,0E0,0E0,0E0,0E0,0E0,0E0,0E0,0E0,0E0,0E0,0E0,0E0,0E0,0E0,0E0,0E0,0E0,0E0,0E0,0E0,0E0,0E0,0E0,0E0,0E0,0E0,0E0,0E0,0E0,0E0,0E0,0E0,0E0,0E0,0E0,0E0,0E0,0E0,0E0,0E0,0E0,0E0,0E0,0E0,0E0,0E0,0E0,0E0,0E0,0E0,0E0,0E0,0E0],"parents":[2147483647,0,0,1,1,2,2,3,3,4,4,5,5,6,6,7,7,8,8,9,9,10,10,11,11,12,12,13,13,14,14,15,15,16,16,17,17,18,18,19,19,20,20,21,21,22,22,23,23,24,24,25,25,26,26,27,27,28,28,29,29,30,30,31,31,32,32,33,33,34,34,35,35,36,36,37,37,38,38,39,39,40,40,41,41,42,42,43,43,44,44,45,45,46,46,47,47,48,48,49,49,50,50,51,51,52,52,53,53,54,54,55,55,56,56,57,57,58,58,59,59,60,60,61,61,62,62],"right_children":[2,4,6,8,10,12,14,16,18,20,22,24,26,28,30,32,34,36,38,40,42,44,46,48,50,52,54,56,58,60,62,64,66,68,70,72,74,76,78,80,82,84,86,88,90,92,94,96,98,100,102,104,106,108,110,112,114,116,118,120,122,124,126,-1,-1,-1,-1,-1,-1,-1,-1,-1,-1,-1,-1,-1,-1,-1,-1,-1,-1,-1,-1,-1,-1,-1,-1,-1,-1,-1,-1,-1,-1,-1,-1,-1,-1,-1,-1,-1,-1,-1,-1,-1,-1,-1,-1,-1,-1,-1,-1,-1,-1,-1,-1,-1,-1,-1,-1,-1,-1,-1,-1,-1,-1,-1,-1],"split_conditions":[5.5E0,3.5E0,1.55E1,1.5E0,9.25E1,9.25E1,8.95E1,9.35E1,2.5E0,2.0135E3,2.555E2,2.0135E3,9.5E0,2.0135E3,2.955E2,2.0135E3,2.545E2,9.25E1,9.35E1,3.95E1,4.95E1,4.5E0,4.5E0,3.95E1,4.95E1,8.5E0,2.565E2,3.85E1,1.75E1,2.0135E3,2.0135E3,3.85E1,5.55E1,2.0145E3,2.0145E3,2.0135E3,2.0135E3,2.0135E3,2.0135E3,1.95E1,4.5E0,4.5E0,4.5E0,2.0145E3,2.0155E3,3.275E2,2.0145E3,2.15E1,1.45E1,1.45E1,9.5E0,7.5E0,2.555E2,2.0145E3,2.0145E3,2.15E1,3.85E1,1.65E1,1.85E1,1.75E1,1.75E1,4.65E1,3.85E1,1.716025E3,2.9036782E3,3.1072727E3,3.6377664E3,4.2325815E3,5.083604E3,3.45959E3,4.096719E3,6.366836E3,9.001214E3,9.167174E3,1.2181394E4,3.9936948E3,5.591603E3,5.74471E3,7.6323315E3,1.2986116E3,1.8527794E3,2.9875967E3,2.3137712E3,3.025954E3,2.5303823E3,3.6657502E3,3.06286E3,4.2551714E3,5.064042E3,3.6750051E3,4.4767246E3,4.0145134E3,3.3638054E3,2.8610376E3,3.4275916E3,4.672954E3,6.6040933E3,8.852447E3,1.2063513E4,9.247742E3,1.2148362E4,1.0121934E4,1.25442705E4,1.0769943E4,1.5858005E4,9.514811E3,7.6926924E3,1.4527419E4,1.7286994E4,1.1866664E4,1.4131814E4,3.423448E3,4.7926055E3,7.2120356E3,5.295255E3,3.8909749E3,5.001605E3,1.4342715E4,7.7015234E3,4.859803E3,8.711379E3,6.4309995E3,1.1535355E4,6.391647E3,4.3488555E3,8.90093E3,7.100635E3],"split_indices":[0,0,0,0,5,5,5,5,0,1,5,1,0,1,5,1,5,5,5,5,5,0,0,5,5,0,5,5,0,1,1,5,5,1,1,1,1,1,1,5,0,0,0,1,1,5,1,5,0,0,0,0,5,1,1,5,0,0,0,0,0,0,0,0,0,0,0,0,0,0,0,0,0,0,0,0,0,0,0,0,0,0,0,0,0,0,0,0,0,0,0,0,0,0,0,0,0,0,0,0,0,0,0,0,0,0,0,0,0,0,0,0,0,0,0,0,0,0,0,0,0,0,0,0,0,0,0],"split_type":[0,0,0,0,0,0,0,0,0,0,0,0,0,0,0,0,0,0,0,0,0,0,0,0,0,0,0,0,0,0,0,0,0,0,0,0,0,0,0,0,0,0,0,0,0,0,0,0,0,0,0,0,0,0,0,0,0,0,0,0,0,0,0,0,0,0,0,0,0,0,0,0,0,0,0,0,0,0,0,0,0,0,0,0,0,0,0,0,0,0,0,0,0,0,0,0,0,0,0,0,0,0,0,0,0,0,0,0,0,0,0,0,0,0,0,0,0,0,0,0,0,0,0,0,0,0,0],"sum_hessian":[7.305E4,7.305E3,6.5745E4,4.383E3,2.922E3,1.461E4,5.1135E4,1.461E3,2.922E3,7.36E2,2.186E3,3.68E3,1.093E4,1.246E4,3.8675E4,3.72E2,1.089E3,1.461E3,1.461E3,1.84E2,5.52E2,1.304E3,8.82E2,9.2E2,2.76E3,4.372E3,6.558E3,3.115E3,9.345E3,2.884E4,9.835E3,9.3E1,2.79E2,6.44E2,4.45E2,3.68E2,1.093E3,3.72E2,1.089E3,7.8E1,1.06E2,2.94E2,2.58E2,6.52E2,6.52E2,4.41E2,4.41E2,3.9E2,5.3E2,1.47E3,1.29E3,3.279E3,1.093E3,3.936E3,2.622E3,1.33E3,1.785E3,5.34E2,8.811E3,7.21E3,2.163E4,2.45E3,7.385E3,3.8E1,5.5E1,1.65E2,1.14E2,3.22E2,3.22E2,2.22E2,2.23E2,9.2E1,2.76E2,2.73E2,8.2E2,9.3E1,2.79E2,2.72E2,8.17E2,3.8E1,4E1,5.3E1,5.3E1,1.47E2,1.47E2,1.29E2,1.29E2,3.26E2,3.26E2,4.89E2,1.63E2,2.88E2,1.53E2,2.2E2,2.21E2,2.1E2,1.8E2,4.77E2,5.3E1,1.323E3,1.47E2,5.16E2,7.74E2,2.186E3,1.093E3,6.52E2,4.41E2,1.968E3,1.968E3,1.308E3,1.314E3,7.35E2,5.95E2,1.173E3,6.12E2,2.67E2,2.67E2,2.67E2,8.544E3,4.12E2,6.798E3,1.236E3,2.0394E4,2.17E3,2.8E2,4.853E3,2.532E3],"tree_param":{"num_deleted":"0","num_feature":"15","num_nodes":"127","size_leaf_vector":"0"}},{"base_weights":[2.2210771E4,1.3425244E4,2.3186723E4,1.6632682E4,8.610044E3,2.5381764E4,1.7149258E4,9.374932E3,2.0257107E4,6.8297363E3,9.334319E3,2.4737773E4,4.5958402E4,1.5522121E4,3.5024895E4,7.4483447E3,1.0175745E4,2.4919613E4,1.5580745E4,5.886788E3,7.7566147E3,1.032397E4,8.211535E3,2.5486137E4,1.5369932E3,3.3071E4,4.861506E4,1.85123E4,7.5459043E3,2.5542906E4,3.6756133E4,6.429304E3,8.433062E3,1.1280863E4,8.930039E3,1.6437373E4,2.6282045E4,1.0255649E4,1.6475676E4,4.668753E3,6.696406E3,6.8817207E3,8.324203E3,8.552421E3,1.0901973E4,7.693154E3,9.72893E3,2.4615805E4,3.8093215E4,7.7420026E2,3.8107917E3,2.486918E4,3.5659656E4,5.11029E4,3.8607445E4,1.1972536E4,3.812079E4,-3.0541475E3,1.2845162E4,1.797025E4,2.794797E4,3.292087E4,4.052571E4,5.100318E3,7.230316E3,7.519124E3,8.911863E3,9.29562E3,1.191652E4,9.561466E3,7.4392715E3,1.0393467E4,1.8371436E4,2.3078244E4,2.9439045E4,6.5777373E3,1.1432847E4,1.4467606E4,1.845422E4,3.8733147E3,5.410527E3,7.3870483E3,5.953035E3,7.475928E3,6.208413E3,9.015343E3,7.567519E3,9.387178E3,7.65569E3,1.1849682E4,9.927867E3,8.226455E3,6.7202812E3,1.0639452E4,8.739311E3,2.5548797E4,-1.5075957E3,3.3201516E4,4.295886E4,1.4770114E3,-8.759093E2,4.2792734E3,5.30079E2,1.7826762E4,2.8926455E4,4.6003918E4,5.6085758E4,3.452508E4,4.237593E4,1.9291717E4,1.050626E4,4.758527E4,2.8630232E4,-3.5781797E3,-1.480868E3,2.23692E4,3.3123396E3,1.3036839E4,2.1312629E4,3.4141184E4,2.6348375E4,4.210965E4,3.2292508E4],"categories":[],"categories_nodes":[],"categories_segments":[],"categories_sizes":[],"default_left":[1,1,1,1,1,1,1,1,1,1,1,1,1,1,1,1,1,1,1,1,1,1,1,1,1,1,1,1,1,1,1,1,1,1,1,1,1,1,1,1,1,1,1,1,1,1,1,1,1,1,1,1,0,1,1,1,1,1,1,1,0,1,1,0,0,0,0,0,0,0,0,0,0,0,0,0,0,0,0,0,0,0,0,0,0,0,0,0,0,0,0,0,0,0,0,0,0,0,0,0,0,0,0,0,0,0,0,0,0,0,0,0,0,0,0,0,0,0,0,0,0,0,0],"id":2,"left_children":[1,3,5,7,9,11,13,15,17,19,21,23,25,27,29,31,33,35,37,39,41,43,45,47,49,51,53,55,57,59,61,63,65,67,69,71,73,75,77,79,81,83,85,87,89,91,93,95,97,99,101,103,-1,105,107,109,111,113,115,117,-1,119,121,-1,-1,-1,-1,-1,-1,-1,-1,-1,-1,-1,-1,-1,-1,-1,-1,-1,-1,-1,-1,-1,-1,-1,-1,-1,-1,-1,-1,-1,-1,-1,-1,-1,-1,-1,-1,-1,-1,-1,-1,-1,-1,-1,-1,-1,-1,-1,-1,-1,-1,-1,-1,-1,-1,-1,-1,-1,-1,-1,-1],"loss_changes":[6.26046E11,1.12694E11,8.7086334E11,1.1513194E11,3.705258E9,6.377544E11,5.0942286E11,2.1798175E9,6.334356E10,6.9636096E8,2.2209004E9,8.117132E11,4.8447357E10,3.8318244E11,2.3060677E10,3.8028083E8,1.3172163E9,1.6463692E10,6.798344E9,3.8784717E8,1.537618E8,1.0320937E9,6.936494E8,4.960226E11,2.5327974E9,4.4847923E9,2.8152693E10,1.4984814E12,2.4629905E11,3.668476E9,1.650629E10,1.9412685E8,2.7949056E7,5.732024E8,3.8916915E8,2.2053683E9,1.2044468E10,8.470098E8,4.6992916E9,8.111949E7,8.591565E7,2.2800896E7,6.4088064E7,1.3398835E8,6.439731E8,3.250176E8,1.2778086E8,1.03271943E12,6.8144595E10,1.2723418E9,5.6179405E8,1.3130056E9,0E0,2.1963473E10,2.3061135E9,9.388425E10,2.6119058E11,1.2000461E9,2.6530782E11,6.785311E8,0E0,4.0490762E9,6.699352E9,0E0,0E0,0E0,0E0,0E0,0E0,0E0,0E0,0E0,0E0,0E0,0E0,0E0,0E0,0E0,0E0,0E0,0E0,0E0,0E0,0E0,0E0,0E0,0E0,0E0,0E0,0E0,0E0,0E0,0E0,0E0,0E0,0E0,0E0,0E0,0E0,0E0,0E0,0E0,0E0,0E0,0E0,0E0,0E0,0E0,0E0,0E0,0E0,0E0,0E0,0E0,0E0,0E0,0E0,0E0,0E0,0E0,0E0,0E0,0E0],"parents":[2147483647,0,0,1,1,2,2,3,3,4,4,5,5,6,6,7,7,8,8,9,9,10,10,11,11,12,12,13,13,14,14,15,15,16,16,17,17,18,18,19,19,20,20,21,21,22,22,23,23,24,24,25,25,26,26,27,27,28,28,29,29,30,30,31,31,32,32,33,33,34,34,35,35,36,36,37,37,38,38,39,39,40,40,41,41,42,42,43,43,44,44,45,45,46,46,47,47,48,48,49,49,50,50,51,51,53,53,54,54,55,55,56,56,57,57,58,58,59,59,61,61,62,62],"right_children":[2,4,6,8,10,12,14,16,18,20,22,24,26,28,30,32,34,36,38,40,42,44,46,48,50,52,54,56,58,60,62,64,66,68,70,72,74,76,78,80,82,84,86,88,90,92,94,96,98,100,102,104,-1,106,108,110,112,114,116,118,-1,120,122,-1,-1,-1,-1,-1,-1,-1,-1,-1,-1,-1,-1,-1,-1,-1,-1,-1,-1,-1,-1,-1,-1,-1,-1,-1,-1,-1,-1,-1,-1,-1,-1,-1,-1,-1,-1,-1,-1,-1,-1,-1,-1,-1,-1,-1,-1,-1,-1,-1,-1,-1,-1,-1,-1,-1,-1,-1,-1,-1,-1],"split_conditions":[5.5E0,3.5E0,3.85E1,1.5E0,1.065E2,3.75E1,4.95E1,1.085E2,2.5E0,2.0145E3,8.5E0,3.65E1,6.35E1,4.65E1,5.75E1,2.0145E3,8.5E0,5.15E1,5.35E1,4.35E1,4.35E1,2.0135E3,2.0155E3,3.45E1,2.0155E3,2.0135E3,1.05E1,4.45E1,4.75E1,2.0135E3,2.0145E3,4.25E1,4.05E1,2.0135E3,3.285E2,2.0135E3,2.0145E3,2.0135E3,2.0145E3,2.0135E3,4.5E0,4.5E0,4.5E0,4.5E0,4.5E0,3.215E2,4.5E0,3.35E1,3.55E1,2.565E2,3.205E2,2.55E1,1.0697897E4,2.0145E3,2.0145E3,3.95E1,4.55E1,2.0155E3,4.85E1,2.55E1,8.384392E3,3.155E2,3.145E2,1.5300955E3,2.169095E3,2.2557373E3,2.673559E3,2.788686E3,3.574956E3,2.86844E3,2.2317815E3,3.1180403E3,5.5114307E3,6.9234736E3,8.831714E3,1.9733213E3,3.4298542E3,4.340282E3,5.5362666E3,1.1619945E3,1.6231581E3,2.2161145E3,1.7859106E3,2.2427786E3,1.862524E3,2.704603E3,2.2702559E3,2.8161533E3,2.296707E3,3.5549045E3,2.9783604E3,2.4679365E3,2.0160845E3,3.1918357E3,2.6217932E3,7.664639E3,-4.5227872E2,9.960455E3,1.2887658E4,4.4310342E2,-2.627728E2,1.2837821E3,1.590237E2,5.348029E3,8.677937E3,1.3801176E4,1.6825729E4,1.0357523E4,1.2712779E4,5.787515E3,3.1518782E3,1.4275581E4,8.58907E3,-1.073454E3,-4.4426044E2,6.7107603E3,9.937019E2,3.9110518E3,6.393789E3,1.0242355E4,7.9045127E3,1.26328955E4,9.687753E3],"split_indices":[0,0,0,0,5,0,0,5,0,1,2,0,5,0,5,1,2,5,5,5,5,1,1,0,1,1,2,0,0,1,1,5,5,1,5,1,1,1,1,1,0,0,0,0,0,5,0,0,0,5,5,5,0,1,1,0,0,1,0,5,0,5,5,0,0,0,0,0,0,0,0,0,0,0,0,0,0,0,0,0,0,0,0,0,0,0,0,0,0,0,0,0,0,0,0,0,0,0,0,0,0,0,0,0,0,0,0,0,0,0,0,0,0,0,0,0,0,0,0,0,0,0,0],"split_type":[0,0,0,0,0,0,0,0,0,0,0,0,0,0,0,0,0,0,0,0,0,0,0,0,0,0,0,0,0,0,0,0,0,0,0,0,0,0,0,0,0,0,0,0,0,0,0,0,0,0,0,0,0,0,0,0,0,0,0,0,0,0,0,0,0,0,0,0,0,0,0,0,0,0,0,0,0,0,0,0,0,0,0,0,0,0,0,0,0,0,0,0,0,0,0,0,0,0,0,0,0,0,0,0,0,0,0,0,0,0,0,0,0,0,0,0,0,0,0,0,0,0,0],"sum_hessian":[7.305E4,7.305E3,6.5745E4,4.383E3,2.922E3,4.8213E4,1.7532E4,1.461E3,2.922E3,8.48E2,2.074E3,4.6752E4,1.461E3,1.6071E4,1.461E3,4.32E2,1.029E3,1.461E3,1.461E3,4.24E2,4.24E2,1.098E3,9.76E2,4.5291E4,1.461E3,2.52E2,1.209E3,1.1688E4,4.383E3,2.28E2,1.233E3,2.16E2,2.16E2,5.41E2,4.88E2,2.04E2,1.257E3,2.12E2,1.249E3,1.72E2,2.52E2,1.72E2,2.52E2,2.74E2,8.24E2,7.32E2,2.44E2,4.2369E4,2.922E3,1.095E3,3.66E2,6.3E1,1.89E2,9.65E2,2.44E2,8.766E3,2.922E3,1.461E3,2.922E3,5.7E1,1.71E2,6.16E2,6.17E2,8.4E1,1.32E2,8E1,1.36E2,1.35E2,4.06E2,3.39E2,1.49E2,5.1E1,1.53E2,6.28E2,6.29E2,5.3E1,1.59E2,6.24E2,6.25E2,8.6E1,8.6E1,1.26E2,1.26E2,8.6E1,8.6E1,1.26E2,1.26E2,1.37E2,1.37E2,4.12E2,4.12E2,4.68E2,2.64E2,1.22E2,1.22E2,4.0908E4,1.461E3,1.461E3,1.461E3,7.68E2,3.27E2,3.2E2,4.6E1,2.5E1,3.8E1,4.82E2,4.83E2,1.22E2,1.22E2,1.461E3,7.305E3,1.461E3,1.461E3,1.095E3,3.66E2,1.461E3,1.461E3,2.5E1,3.2E1,5.16E2,1E2,5.14E2,1.03E2],"tree_param":{"num_deleted":"0","num_feature":"15","num_nodes":"123","size_leaf_vector":"0"}},{"base_weights":[1.5551713E4,9.134403E3,1.6787857E4,6.7018696E3,1.1565389E4,1.5236646E4,2.1425037E4,4.6320283E3,8.569307E3,1.2438019E4,8.795232E3,1.6316462E4,9.960747E3,1.2237235E4,2.2444945E4,2.596749E3,6.6640015E3,9.321843E3,6.1769614E3,1.2058532E4,2.6259678E4,2.6204585E3,1.187658E4,1.7543912E4,1.2428044E4,1.1424558E4,8.377207E3,1.5277806E4,7.6589546E3,2.9019037E4,2.0564105E4,4.5987564E2,3.782073E3,8.618044E3,5.818623E3,8.973481E3,2.1864188E4,8.734216E2,8.821639E3,1.2391182E4,7.966854E1,8.360268E3,6.890281E2,1.0553269E4,2.0973232E4,9.771809E3,1.8721068E4,4.995026E3,1.4904627E4,8.967596E3,1.2649264E4,1.0418699E4,7.498647E3,8.505971E3,1.8644387E4,8.0144907E3,5.677694E3,2.7646055E4,4.1245996E4,7.4749746E3,2.135657E4,3.2468155E2,6.4526416E3,3.6271675E3,1.0782048E4,5.3803755E3,1.1414501E4,2.125109E3,6.5792446E3,9.222802E3,-5.948382E0,5.4561846E3,-6.751747E2,7.5977295E3,1.7132412E4,7.719396E3,1.314238E4,-4.7502173E2,1.1465189E3,7.3337886E3,9.676997E3,-1.931692E3,5.9026553E3,1.4750103E4,4.9317036E3,1.2157791E4,6.18721E3,1.8263244E4,3.332832E4,1.4263631E4,3.5440894E2,1.8751584E4,1.0091358E4,1.1311015E4,7.9523784E3,7.784494E3,1.318637E4,7.005226E3,1.5512022E4,2.2642004E3,8.580098E3,8.850168E3,6.506028E3,2.2981355E4,1.4246883E4,6.6878267E3,8.458868E3,6.284969E3,4.9545474E3,2.9197582E4,1.922618E4,4.3132402E4,3.0129379E4,9.035522E3,2.2608892E3,4.422413E4,2.0637531E4],"categories":[],"categories_nodes":[],"categories_segments":[],"categories_sizes":[],"default_left":[1,1,1,1,1,1,1,1,1,1,1,1,1,1,1,1,1,1,1,1,0,1,1,1,1,1,1,1,1,1,1,1,1,1,1,1,0,1,1,1,1,1,1,1,0,1,1,1,1,1,1,1,1,1,1,1,1,1,1,1,1,0,0,0,0,0,0,0,0,0,0,0,0,0,0,0,0,0,0,0,0,0,0,0,0,0,0,0,0,0,0,0,0,0,0,0,0,0,0,0,0,0,0,0,0,0,0,0,0,0,0,0,0,0,0,0,0],"id":3,"left_children":[1,3,5,7,9,11,13,15,17,19,21,23,25,27,29,31,33,35,37,39,-1,41,43,45,47,49,51,53,55,57,59,61,63,65,67,69,-1,71,73,75,77,79,81,83,-1,85,87,89,91,93,95,97,99,101,103,105,107,109,111,113,115,-1,-1,-1,-1,-1,-1,-1,-1,-1,-1,-1,-1,-1,-1,-1,-1,-1,-1,-1,-1,-1,-1,-1,-1,-1,-1,-1,-1,-1,-1,-1,-1,-1,-1,-1,-1,-1,-1,-1,-1,-1,-1,-1,-1,-1,-1,-1,-1,-1,-1,-1,-1,-1,-1,-1,-1],"loss_changes":[5.7934034E11,6.9707235E10,4.4026665E11,2.2769435E10,1.4155121E10,2.613345E11,1.4357522E11,1.15666E10,5.525209E9,2.3207805E10,2.6929603E10,1.8163119E11,1.798701E10,2.1265007E10,1.7023527E11,3.546836E9,2.2641746E9,1.0102178E10,1.0441777E10,1.7400463E10,0E0,5.237937E9,1.1154301E10,2.6474552E11,1.6827115E11,1.2076286E10,6.649561E9,2.0861108E10,3.8770688E8,5.041396E10,1.1130529E11,4.0380845E8,9.378785E8,3.75032E9,2.7420078E9,5.137973E9,0E0,1.7707995E9,4.925133E9,1.4810153E10,7.096542E7,8.987085E7,4.86193E9,1.9438477E10,0E0,3.2519422E10,1.675635E11,9.836349E10,1.2681504E11,3.124183E9,6.954746E9,1.946787E10,1.4845805E10,1.5444173E8,1.1401757E10,2.4940134E8,1.145856E7,3.5546595E10,5.1593544E9,4.983722E9,1.6568445E11,0E0,0E0,0E0,0E0,0E0,0E0,0E0,0E0,0E0,0E0,0E0,0E0,0E0,0E0,0E0,0E0,0E0,0E0,0E0,0E0,0E0,0E0,0E0,0E0,0E0,0E0,0E0,0E0,0E0,0E0,0E0,0E0,0E0,0E0,0E0,0E0,0E0,0E0,0E0,0E0,0E0,0E0,0E0,0E0,0E0,0E0,0E0,0E0,0E0,0E0,0E0,0E0,0E0,0E0,0E0,0E0],"parents":[2147483647,0,0,1,1,2,2,3,3,4,4,5,5,6,6,7,7,8,8,9,9,10,10,11,11,12,12,13,13,14,14,15,15,16,16,17,17,18,18,19,19,21,21,22,22,23,23,24,24,25,25,26,26,27,27,28,28,29,29,30,30,31,31,32,32,33,33,34,34,35,35,37,37,38,38,39,39,40,40,41,41,42,42,43,43,45,45,46,46,47,47,48,48,49,49,50,50,51,51,52,52,53,53,54,54,55,55,56,56,57,57,58,58,59,59,60,60],"right_children":[2,4,6,8,10,12,14,16,18,20,22,24,26,28,30,32,34,36,38,40,-1,42,44,46,48,50,52,54,56,58,60,62,64,66,68,70,-1,72,74,76,78,80,82,84,-1,86,88,90,92,94,96,98,100,102,104,106,108,110,112,114,116,-1,-1,-1,-1,-1,-1,-1,-1,-1,-1,-1,-1,-1,-1,-1,-1,-1,-1,-1,-1,-1,-1,-1,-1,-1,-1,-1,-1,-1,-1,-1,-1,-1,-1,-1,-1,-1,-1,-1,-1,-1,-1,-1,-1,-1,-1,-1,-1,-1,-1,-1,-1,-1,-1,-1,-1],"split_conditions":[5.95E1,2.0145E3,2.0155E3,2.85E1,3.85E1,3.135E2,5.5E0,2.0135E3,3.85E1,3.75E1,4.25E1,3.85E1,3.405E2,3.5E0,1.55E1,1.05E1,1.55E1,3.75E1,4.25E1,3.65E1,7.877904E3,3.95E1,4.95E1,5.5E0,4.15E1,2.0135E3,1.55E1,1.5E0,3.185E2,1.45E1,1.75E1,4.95E1,4.95E1,7.5E0,2.15E1,3.65E1,6.5592563E3,3.95E1,4.95E1,5.5E0,3.95E1,3.55E1,4.15E1,4.65E1,6.29197E3,3.5E0,3.75E1,3.95E1,4.65E1,1.55E1,5.5E0,9.5E0,2.15E1,3.185E2,2.5E0,1.265E2,4.5E0,3.185E2,3.195E2,2.955E2,1.85E1,9.740447E1,1.9357926E3,1.0881503E3,3.2346145E3,1.6141127E3,3.4243503E3,6.375327E2,1.9737734E3,2.7668406E3,-1.7845147E0,1.6368555E3,-2.0255241E2,2.2793188E3,5.1397236E3,2.3158188E3,3.942714E3,-1.4250653E2,3.439557E2,2.2001367E3,2.903099E3,-5.795076E2,1.7707966E3,4.425031E3,1.4795111E3,3.6473374E3,1.8561631E3,5.4789736E3,9.998496E3,4.2790894E3,1.06322685E2,5.6254756E3,3.0274077E3,3.3933044E3,2.3857136E3,2.3353484E3,3.9559111E3,2.1015679E3,4.653607E3,6.7926013E2,2.5740293E3,2.6550505E3,1.9518085E3,6.8944067E3,4.274065E3,2.006348E3,2.5376606E3,1.8854908E3,1.4863643E3,8.759275E3,5.767854E3,1.2939722E4,9.038814E3,2.7106567E3,6.782668E2,1.3267239E4,6.19126E3],"split_indices":[5,1,1,5,0,5,0,1,0,0,0,0,5,0,0,3,0,0,0,0,0,0,0,0,0,1,0,0,5,0,0,0,0,0,0,0,0,0,0,0,5,5,0,0,0,0,0,0,0,0,0,0,0,5,0,5,0,5,5,5,0,0,0,0,0,0,0,0,0,0,0,0,0,0,0,0,0,0,0,0,0,0,0,0,0,0,0,0,0,0,0,0,0,0,0,0,0,0,0,0,0,0,0,0,0,0,0,0,0,0,0,0,0,0,0,0,0],"split_type":[0,0,0,0,0,0,0,0,0,0,0,0,0,0,0,0,0,0,0,0,0,0,0,0,0,0,0,0,0,0,0,0,0,0,0,0,0,0,0,0,0,0,0,0,0,0,0,0,0,0,0,0,0,0,0,0,0,0,0,0,0,0,0,0,0,0,0,0,0,0,0,0,0,0,0,0,0,0,0,0,0,0,0,0,0,0,0,0,0,0,0,0,0,0,0,0,0,0,0,0,0,0,0,0,0,0,0,0,0,0,0,0,0,0,0,0,0],"sum_hessian":[7.305E4,1.18E4,6.125E4,5.9E3,5.9E3,4.59E4,1.535E4,2.8E3,3.1E3,4.484E3,1.416E3,3.81E4,7.8E3,1.535E3,1.3815E4,1.4E3,1.4E3,2.356E3,7.44E2,4.366E3,1.18E2,4.72E2,9.44E2,2.8956E4,9.144E3,4.05E3,3.75E3,9.21E2,6.14E2,3.07E3,1.0745E4,5E2,9E2,4.2E2,9.8E2,2.294E3,6.2E1,2.48E2,4.96E2,4.248E3,1.18E2,1.18E2,3.54E2,8.26E2,1.18E2,3.81E3,2.5146E4,2.286E3,6.858E3,1.35E3,2.7E3,1.125E3,2.625E3,3.07E2,6.14E2,5.18E2,9.6E1,2.763E3,3.07E2,6.14E2,1.0131E4,4.9E2,1E1,8.82E2,1.8E1,1.96E2,2.24E2,1.68E2,8.12E2,2.232E3,6.2E1,6.2E1,1.86E2,4.34E2,6.2E1,5.9E2,3.658E3,7.8E1,4E1,7E1,4.8E1,2.36E2,1.18E2,4.72E2,3.54E2,2.286E3,1.524E3,2.4384E4,7.62E2,7.62E2,1.524E3,3.81E3,3.048E3,4.05E2,9.45E2,2.7E2,2.43E3,6.75E2,4.5E2,4.5E2,2.175E3,2.59E2,4.8E1,3.07E2,3.07E2,1.34E2,3.84E2,4.8E1,4.8E1,2.331E3,4.32E2,2.6E2,4.7E1,4.72E2,1.42E2,3.07E2,9.824E3],"tree_param":{"num_deleted":"0","num_feature":"15","num_nodes":"117","size_leaf_vector":"0"}},{"base_weights":[1.0888993E4,7.390681E3,1.2396417E4,5.59254E3,9.18815E3,1.5206814E4,9.139891E3,3.7029792E3,6.714623E3,7.289684E3,1.0315005E4,1.0670419E4,1.6718354E4,7.312661E3,1.0958641E4,2.347524E3,5.056629E3,6.530072E3,1.56456045E4,9.544928E3,6.320163E3,1.1149097E4,7.6685776E3,1.3020713E4,9.6606455E3,9.539805E3,1.751541E4,9.708582E3,6.2847866E3,1.2384205E4,7.87694E3,5.952506E2,3.160074E3,5.6635327E3,3.1271768E3,6.918339E3,5.7431604E2,1.368098E4,1.738672E4,5.5121997E3,1.3059805E4,1.7781552E3,7.2587466E3,6.9030176E3,1.2106052E4,2.3379763E3,1.0329351E4,8.943927E3,1.9117596E4,-7.9979297E2,1.0294648E4,1.2141495E4,5.6272583E3,1.9548992E4,1.3009863E4,5.9451465E3,1.5345557E4,-3.2900925E3,6.86543E3,1.3420894E4,9.0961455E3,9.885076E3,7.0128735E3,-4.7746082E2,1.265214E3,3.6968489E3,1.4543602E3,5.381441E3,1.572429E4,-1.6349574E3,5.505976E3,6.5399277E3,1.5189719E4,-5.029664E3,3.3843484E3,6.8740444E3,4.473027E3,1.8965047E4,1.2184683E4,5.386871E3,-1.8377599E3,2.3958713E4,6.6521484E3,3.351955E3,7.490104E3,1.57197705E4,1.0844551E4,8.454446E3,2.8369373E2,1.4299955E4,6.3400674E3,6.6286074E3,1.182073E4,1.7531223E4,2.6864943E4,-2.9977751E3,1.4039847E3,2.821333E4,9.728383E3,5.0583896E3,1.5672598E4,6.3047256E3,4.936132E3,1.8709334E4,3.168652E4,-2.198307E3,1.4179915E4,4.951689E3,9.404429E3,1.3999616E4,2.1987791E4,-5.202981E3,-1.3633223E3,2.165545E4,6.400436E3,7.09332E3,1.4378111E4,3.393772E3,1.1942517E4,5.4058496E3,1.3788884E4,2.1011694E3,8.0276553E3],"categories":[],"categories_nodes":[],"categories_segments":[],"categories_sizes":[],"default_left":[1,1,1,1,1,1,1,1,1,1,1,1,1,1,1,1,1,1,1,1,1,1,1,1,1,1,1,1,1,1,1,1,1,1,1,1,1,0,0,1,1,1,1,1,1,1,1,1,1,1,1,1,1,1,1,1,1,1,1,1,1,1,1,0,0,0,0,0,0,0,0,0,0,0,0,0,0,0,0,0,0,0,0,0,0,0,0,0,0,0,0,0,0,0,0,0,0,0,0,0,0,0,0,0,0,0,0,0,0,0,0,0,0,0,0,0,0,0,0,0,0,0,0],"id":4,"left_children":[1,3,5,7,9,11,13,15,17,19,21,23,25,27,29,31,33,35,37,39,41,43,45,47,49,51,53,55,57,59,61,63,65,67,69,71,73,-1,-1,75,77,79,81,83,85,87,89,91,93,95,97,99,101,103,105,107,109,111,113,115,117,119,121,-1,-1,-1,-1,-1,-1,-1,-1,-1,-1,-1,-1,-1,-1,-1,-1,-1,-1,-1,-1,-1,-1,-1,-1,-1,-1,-1,-1,-1,-1,-1,-1,-1,-1,-1,-1,-1,-1,-1,-1,-1,-1,-1,-1,-1,-1,-1,-1,-1,-1,-1,-1,-1,-1,-1,-1,-1,-1,-1,-1],"loss_changes":[3.8513777E11,7.105806E10,4.670866E11,2.3299949E10,2.34592E10,1.8770874E11,7.851855E10,7.5126907E9,1.1272225E10,8.906539E9,1.5147467E10,1.613339E10,1.17420065E11,2.9001384E10,5.1965854E10,2.918353E9,2.383995E9,1.5634956E10,2.3760077E8,1.737687E10,1.2226314E10,2.1228487E10,2.3477953E10,5.093232E10,3.181504E10,2.086019E10,1.6921343E11,7.502892E10,4.5950403E10,2.7491697E10,6.4392724E9,4.6846304E8,1.2773581E9,4.3399127E9,5.593786E9,1.9772932E10,6.5521787E9,0E0,0E0,7.829852E8,3.1641682E9,6.4429635E9,2.39403E10,1.9908731E9,1.93362E10,6.9460234E9,1.741239E10,8.140972E9,9.643852E9,1.3362715E9,4.5608993E10,3.0784504E10,3.5422208E8,1.2926583E11,1.0243762E11,7.256318E9,1.2360253E10,1.7362412E9,5.3428453E10,3.7190107E10,3.1528927E10,1.9614736E10,1.3071942E10,0E0,0E0,0E0,0E0,0E0,0E0,0E0,0E0,0E0,0E0,0E0,0E0,0E0,0E0,0E0,0E0,0E0,0E0,0E0,0E0,0E0,0E0,0E0,0E0,0E0,0E0,0E0,0E0,0E0,0E0,0E0,0E0,0E0,0E0,0E0,0E0,0E0,0E0,0E0,0E0,0E0,0E0,0E0,0E0,0E0,0E0,0E0,0E0,0E0,0E0,0E0,0E0,0E0,0E0,0E0,0E0,0E0,0E0,0E0,0E0],"parents":[2147483647,0,0,1,1,2,2,3,3,4,4,5,5,6,6,7,7,8,8,9,9,10,10,11,11,12,12,13,13,14,14,15,15,16,16,17,17,18,18,19,19,20,20,21,21,22,22,23,23,24,24,25,25,26,26,27,27,28,28,29,29,30,30,31,31,32,32,33,33,34,34,35,35,36,36,39,39,40,40,41,41,42,42,43,43,44,44,45,45,46,46,47,47,48,48,49,49,50,50,51,51,52,52,53,53,54,54,55,55,56,56,57,57,58,58,59,59,60,60,61,61,62,62],"right_children":[2,4,6,8,10,12,14,16,18,20,22,24,26,28,30,32,34,36,38,40,42,44,46,48,50,52,54,56,58,60,62,64,66,68,70,72,74,-1,-1,76,78,80,82,84,86,88,90,92,94,96,98,100,102,104,106,108,110,112,114,116,118,120,122,-1,-1,-1,-1,-1,-1,-1,-1,-1,-1,-1,-1,-1,-1,-1,-1,-1,-1,-1,-1,-1,-1,-1,-1,-1,-1,-1,-1,-1,-1,-1,-1,-1,-1,-1,-1,-1,-1,-1,-1,-1,-1,-1,-1,-1,-1,-1,-1,-1,-1,-1,-1,-1,-1,-1,-1,-1,-1,-1,-1],"split_conditions":[1.105E2,2.0145E3,2.475E2,4.15E1,4.15E1,2.0135E3,2.0145E3,2.0135E3,4.95E1,1.55E1,3.85E1,1.55E1,5.5E0,1.55E1,3.285E2,1.35E1,3.85E1,4.65E1,2.0135E3,7.5E0,2.15E1,7.5E0,4.25E1,9.5E0,1.75E1,3.5E0,3.65E1,9.5E0,1.75E1,3.85E1,1.55E1,5.5E0,3.85E1,3.75E1,4.25E1,4.45E1,4.75E1,4.1042944E3,5.2160166E3,3.5E0,8.5E0,1.85E1,2.25E1,1.5E0,1.55E1,3.95E1,4.65E1,5.5E0,1.45E1,1.65E1,1.85E1,1.5E0,4.5E0,3.45E1,3.75E1,7.5E0,1.45E1,1.65E1,1.85E1,5.5E0,4.25E1,7.5E0,2.15E1,-1.4323825E2,3.795642E2,1.1090547E3,4.3630807E2,1.6144324E3,4.717287E3,-4.9048724E2,1.6517928E3,1.9619784E3,4.556916E3,-1.5088993E3,1.01530457E3,2.0622134E3,1.3419081E3,5.689514E3,3.655405E3,1.6160614E3,-5.51328E2,7.1876143E3,1.9956447E3,1.00558655E3,2.2470312E3,4.715931E3,3.2533655E3,2.536334E3,8.510812E1,4.289987E3,1.9020203E3,1.9885823E3,3.5462192E3,5.259367E3,8.0594834E3,-8.993326E2,4.2119543E2,8.463999E3,2.918515E3,1.517517E3,4.7017793E3,1.8914177E3,1.4808396E3,5.6128003E3,9.505956E3,-6.5949207E2,4.2539746E3,1.4855067E3,2.8213286E3,4.1998853E3,6.5963374E3,-1.5608944E3,-4.089967E2,6.4966353E3,1.9201309E3,2.127996E3,4.3134336E3,1.01813165E3,3.5827551E3,1.621755E3,4.1366655E3,6.303508E2,2.4082966E3],"split_indices":[5,1,5,5,5,1,1,1,0,0,0,0,0,0,5,5,0,0,1,0,0,0,0,0,0,0,0,0,0,0,0,3,0,0,0,0,0,0,0,0,0,0,0,0,0,0,0,0,0,0,0,0,0,0,0,0,0,0,0,0,0,0,0,0,0,0,0,0,0,0,0,0,0,0,0,0,0,0,0,0,0,0,0,0,0,0,0,0,0,0,0,0,0,0,0,0,0,0,0,0,0,0,0,0,0,0,0,0,0,0,0,0,0,0,0,0,0,0,0,0,0,0,0],"split_type":[0,0,0,0,0,0,0,0,0,0,0,0,0,0,0,0,0,0,0,0,0,0,0,0,0,0,0,0,0,0,0,0,0,0,0,0,0,0,0,0,0,0,0,0,0,0,0,0,0,0,0,0,0,0,0,0,0,0,0,0,0,0,0,0,0,0,0,0,0,0,0,0,0,0,0,0,0,0,0,0,0,0,0,0,0,0,0,0,0,0,0,0,0,0,0,0,0,0,0,0,0,0,0,0,0,0,0,0,0,0,0,0,0,0,0,0,0,0,0,0,0,0,0],"sum_hessian":[7.305E4,2.2E4,5.105E4,1.1E4,1.1E4,2.74E4,2.365E4,4.1E3,6.9E3,4.1E3,6.9E3,6.85E3,2.055E4,1.18E4,1.185E4,2.05E3,2.05E3,6.762E3,1.38E2,1.23E3,2.87E3,5.244E3,1.656E3,2.055E3,4.795E3,2.055E3,1.8495E4,3.54E3,8.26E3,8.1E3,3.75E3,6.5E2,1.4E3,1.558E3,4.92E2,6.348E3,4.14E2,6.9E1,6.9E1,5.74E2,6.56E2,4.92E2,2.378E3,9.66E2,4.278E3,5.52E2,1.104E3,1.233E3,8.22E2,2.74E2,4.521E3,1.233E3,8.22E2,1.2741E4,5.754E3,2.124E3,1.416E3,4.72E2,7.788E3,6.156E3,1.944E3,1.125E3,2.625E3,2.5E2,4E2,1.064E3,3.36E2,1.517E3,4.1E1,1.64E2,3.28E2,6.072E3,2.76E2,1.38E2,2.76E2,2.46E2,3.28E2,8.2E1,5.74E2,2.46E2,2.46E2,8.2E1,2.296E3,1.38E2,8.28E2,1.104E3,3.174E3,1.38E2,4.14E2,5.52E2,5.52E2,6.85E2,5.48E2,6.85E2,1.37E2,1.37E2,1.37E2,1.37E2,4.384E3,4.11E2,8.22E2,4.11E2,4.11E2,1.1919E4,8.22E2,4.11E2,5.343E3,1.652E3,4.72E2,1.18E3,2.36E2,2.36E2,2.36E2,2.36E2,7.552E3,8.1E2,5.346E3,6.48E2,1.296E3,5.25E2,6E2,4.5E2,2.175E3],"tree_param":{"num_deleted":"0","num_feature":"15","num_nodes":"123","size_leaf_vector":"0"}},{"base_weights":[7.6245825E3,5.2708203E3,8.79049E3,4.45609E3,7.713871E3,1.1222652E4,6.5169077E3,2.8695562E3,5.249054E3,8.467039E3,5.324654E3,9.056701E3,1.3387652E4,3.890424E3,7.389841E3,4.572408E3,2.1388552E3,5.086173E3,1.3176469E4,8.1076816E3,2.158782E4,1.7335632E3,8.90842E3,8.810867E3,2.1014598E4,1.4587043E4,9.585773E3,3.6939985E3,1.3410406E4,8.479948E3,5.225798E3,2.3078916E3,7.9613364E3,-7.31647E3,2.7135935E3,5.4231533E3,-8.121396E1,1.0830829E4,1.5304105E4,8.455399E3,-4.3768486E3,1.7300078E4,2.432514E4,3.1847947E3,-5.4892217E3,2.4324248E4,5.7902036E3,9.438235E3,-8.085188E2,1.8737166E4,2.3115434E4,1.4100251E4,3.2462834E4,2.488769E3,1.313108E4,4.098313E3,-2.4999497E3,1.387181E4,1.0577715E4,8.923728E3,3.372706E3,5.031746E3,1.4620725E4,2.9033303E3,-2.4403718E3,6.8830205E3,1.3252306E4,-8.980003E3,-5.5929663E3,1.649509E4,2.278774E3,5.0575103E3,1.3440286E4,-5.5609385E3,2.664465E3,7.89824E3,1.7855617E4,-1.9122181E3,-6.6546426E3,7.3208167E2,1.2909229E4,2.0049984E4,2.7533719E4,3.1441294E3,1.6261971E4,8.917221E3,2.0857469E4,-9.045322E3,3.3202993E3,7.477248E3,1.5133969E4,2.6934787E4,3.7718086E4,1.1582052E4,-5.5438556E2,1.938906E4,6.8592046E3,3.7623733E3,1.1444907E4,-8.0505034E3,2.961779E2,8.393715E3,2.0544307E4,-1.7358033E3,1.864452E4,5.571339E3,-3.2349326E3,1.5700761E4,1.2425327E4],"categories":[],"categories_nodes":[],"categories_segments":[],"categories_sizes":[],"default_left":[1,1,1,1,1,1,1,1,1,1,1,1,1,1,1,1,1,1,1,1,1,1,1,1,1,1,1,1,1,1,1,1,1,1,1,1,1,0,0,1,1,0,0,1,0,1,1,1,1,0,0,1,1,1,1,1,1,0,0,1,1,1,1,0,0,0,0,0,0,0,0,0,0,0,0,0,0,0,0,0,0,0,0,0,0,0,0,0,0,0,0,0,0,0,0,0,0,0,0,0,0,0,0,0,0,0,0,0,0],"id":5,"left_children":[1,3,5,7,9,11,13,15,17,19,21,23,25,27,29,31,33,35,37,39,41,43,45,47,49,51,53,55,57,59,61,63,65,67,69,71,73,-1,-1,75,77,-1,-1,79,-1,81,83,85,87,-1,-1,89,91,93,95,97,99,-1,-1,101,103,105,107,-1,-1,-1,-1,-1,-1,-1,-1,-1,-1,-1,-1,-1,-1,-1,-1,-1,-1,-1,-1,-1,-1,-1,-1,-1,-1,-1,-1,-1,-1,-1,-1,-1,-1,-1,-1,-1,-1,-1,-1,-1,-1,-1,-1,-1,-1],"loss_changes":[2.004256E11,4.8135995E10,2.7005918E11,2.2820061E10,1.0843619E10,1.1055058E11,5.786534E10,7.5193344E9,1.5558148E10,2.1509472E10,1.868413E10,3.450582E10,5.3672018E10,1.1733131E10,4.466193E10,1.3918126E10,2.3039713E10,2.0650623E10,1.04697446E9,1.9476414E10,1.0110812E9,7.637847E9,3.4805973E10,6.980121E10,7.008092E8,7.758846E10,7.1248626E10,1.5474319E10,1.9257344E7,2.8529918E10,1.1504943E10,3.0888422E9,4.0565637E9,6.464819E8,2.3896312E10,3.2567394E10,1.0952943E10,0E0,0E0,2.2678372E10,6.721733E8,0E0,0E0,1.4444403E10,0E0,1.1215585E9,1.6740569E10,6.4408715E10,2.4141892E10,0E0,0E0,5.967577E10,5.8692076E9,2.6156712E10,7.400882E10,1.4264017E10,5.8844856E9,0E0,0E0,7.1229506E10,7.875071E10,2.7781038E10,1.0841293E8,0E0,0E0,0E0,0E0,0E0,0E0,0E0,0E0,0E0,0E0,0E0,0E0,0E0,0E0,0E0,0E0,0E0,0E0,0E0,0E0,0E0,0E0,0E0,0E0,0E0,0E0,0E0,0E0,0E0,0E0,0E0,0E0,0E0,0E0,0E0,0E0,0E0,0E0,0E0,0E0,0E0,0E0,0E0,0E0,0E0,0E0],"parents":[2147483647,0,0,1,1,2,2,3,3,4,4,5,5,6,6,7,7,8,8,9,9,10,10,11,11,12,12,13,13,14,14,15,15,16,16,17,17,18,18,19,19,20,20,21,21,22,22,23,23,24,24,25,25,26,26,27,27,28,28,29,29,30,30,31,31,32,32,33,33,34,34,35,35,36,36,39,39,40,40,43,43,45,45,46,46,47,47,48,48,51,51,52,52,53,53,54,54,55,55,56,56,59,59,60,60,61,61,62,62],"right_children":[2,4,6,8,10,12,14,16,18,20,22,24,26,28,30,32,34,36,38,40,42,44,46,48,50,52,54,56,58,60,62,64,66,68,70,72,74,-1,-1,76,78,-1,-1,80,-1,82,84,86,88,-1,-1,90,92,94,96,98,100,-1,-1,102,104,106,108,-1,-1,-1,-1,-1,-1,-1,-1,-1,-1,-1,-1,-1,-1,-1,-1,-1,-1,-1,-1,-1,-1,-1,-1,-1,-1,-1,-1,-1,-1,-1,-1,-1,-1,-1,-1,-1,-1,-1,-1,-1,-1,-1,-1,-1,-1],"split_conditions":[1.215E2,2.0155E3,2.395E2,2.0135E3,3.85E1,2.0145E3,2.0135E3,1.55E1,4.95E1,3.75E1,4.45E1,4.95E1,3.85E1,4.95E1,3.235E2,9.5E0,1.75E1,4.65E1,2.5E0,3.65E1,5.05E1,4.35E1,4.55E1,4.65E1,2.0135E3,3.75E1,4.25E1,4.65E1,3.445E2,4.65E1,4.95E1,8.5E0,1.45E1,1.65E1,1.85E1,4.45E1,4.75E1,3.2492488E3,4.591232E3,3.45E1,5.95E1,5.1900234E3,7.2975425E3,4.25E1,-1.6467666E3,5.55E1,4.95E1,4.45E1,4.75E1,5.62115E3,6.9346304E3,5.5E0,2.0155E3,3.95E1,4.65E1,4.45E1,4.75E1,4.161543E3,3.1733147E3,4.45E1,4.95E1,4.65E1,3.505E2,8.7099915E2,-7.321116E2,2.0649062E3,3.975692E3,-2.694001E3,-1.67789E3,4.9485273E3,6.836322E2,1.5172532E3,4.032086E3,-1.6682816E3,7.9933954E2,2.3694722E3,5.3566855E3,-5.7366547E2,-1.9963928E3,2.1962451E2,3.8727688E3,6.0149956E3,8.260116E3,9.4323883E2,4.8785913E3,2.6751663E3,6.2572407E3,-2.7135967E3,9.9608984E2,2.2431746E3,4.540191E3,8.0804365E3,1.1315426E4,3.4746157E3,-1.6631567E2,5.8167183E3,2.0577615E3,1.128712E3,3.4334724E3,-2.4151511E3,8.885337E1,2.5181145E3,6.1632925E3,-5.20741E2,5.593356E3,1.6714017E3,-9.704798E2,4.7102285E3,3.7275984E3],"split_indices":[5,1,5,1,0,1,1,0,0,0,0,0,0,0,5,0,0,0,2,0,5,0,0,0,1,0,0,0,5,0,0,0,0,0,0,0,0,0,0,0,5,0,0,0,0,5,0,0,0,0,0,0,1,0,0,0,0,0,0,0,0,0,5,0,0,0,0,0,0,0,0,0,0,0,0,0,0,0,0,0,0,0,0,0,0,0,0,0,0,0,0,0,0,0,0,0,0,0,0,0,0,0,0,0,0,0,0,0,0],"split_type":[0,0,0,0,0,0,0,0,0,0,0,0,0,0,0,0,0,0,0,0,0,0,0,0,0,0,0,0,0,0,0,0,0,0,0,0,0,0,0,0,0,0,0,0,0,0,0,0,0,0,0,0,0,0,0,0,0,0,0,0,0,0,0,0,0,0,0,0,0,0,0,0,0,0,0,0,0,0,0,0,0,0,0,0,0,0,0,0,0,0,0,0,0,0,0,0,0,0,0,0,0,0,0,0,0,0,0,0,0],"sum_hessian":[7.305E4,2.42E4,4.885E4,1.815E4,6.05E3,2.36E4,2.525E4,6.05E3,1.21E4,4.598E3,1.452E3,1.18E4,1.18E4,6.3E3,1.895E4,1.815E3,4.235E3,1.1858E4,2.42E2,4.477E3,1.21E2,7.26E2,7.26E2,1.1564E4,2.36E2,8.968E3,2.832E3,6.174E3,1.26E2,1.26E4,6.35E3,1.089E3,7.26E2,2.42E2,3.993E3,1.1132E4,7.26E2,1.18E2,1.24E2,4.356E3,1.21E2,5E1,7.1E1,6.05E2,1.21E2,1.21E2,6.05E2,1.0856E4,7.08E2,1.18E2,1.18E2,8.732E3,2.36E2,9.44E2,1.888E3,5.796E3,3.78E2,1.05E2,2.1E1,1.1592E4,1.008E3,6.223E3,1.27E2,9.68E2,1.21E2,6.05E2,1.21E2,1.21E2,1.21E2,1.21E2,3.872E3,1.0648E4,4.84E2,2.42E2,4.84E2,4.114E3,2.42E2,5.9E1,6.2E1,4.84E2,1.21E2,5.5E1,6.6E1,4.84E2,1.21E2,1.0384E4,4.72E2,2.36E2,4.72E2,1.18E3,7.552E3,1.18E2,1.18E2,2.36E2,7.08E2,9.44E2,9.44E2,5.544E3,2.52E2,1.26E2,2.52E2,1.1088E4,5.04E2,7.56E2,2.52E2,5.842E3,3.81E2,8.1E1,4.6E1],"tree_param":{"num_deleted":"0","num_feature":"15","num_nodes":"109","size_leaf_vector":"0"}},{"base_weights":[5.3392573E3,4.6187427E3,7.494525E3,6.4954253E3,3.8143015E3,8.297848E3,4.645027E3,2.5743235E3,9.925704E3,-1.2412435E3,4.8602827E3,6.9987236E3,1.1218619E4,-5.766304E3,6.9597036E3,-6.883471E2,3.118124E3,8.87205E3,1.7286459E4,2.8851897E3,-5.3672993E3,2.5558332E4,4.1202573E3,8.183813E3,-2.3751941E4,3.123389E4,7.2081265E3,-2.2009412E3,-9.315955E3,1.0157229E4,2.9585933E3,-1.1810195E3,-4.4073224E2,8.358193E3,2.0687751E3,1.0460113E4,-6.57186E2,1.279783E4,1.9510195E4,-5.4234575E3,1.9492271E4,-4.3655596E3,-7.3649673E3,1.5102448E4,2.7238764E4,-1.687703E4,4.898479E3,6.925468E3,1.7816045E4,-2.0215838E4,-2.4811285E4,4.0045914E4,2.2336762E4,2.600755E3,1.1811562E4,-1.079787E3,-4.2859106E3,-5.650077E3,-1.0469239E4,4.231193E3,1.902838E4,-1.0403096E4,7.417903E3,-9.159346E1,-1.2744966E3,-8.686455E2,-1.9116551E2,3.938542E3,8.807756E3,8.0790393E2,3.95885E3,8.416991E3,2.0658727E4,-3.6330954E2,-4.596536E3,9.364739E3,1.4518237E4,1.1507314E4,2.0879062E4,-7.208998E3,-3.6329683E3,1.3661431E4,2.2385014E4,-7.362263E3,-1.3648726E3,-5.948702E3,-7.7301284E3,1.2867456E4,1.7226947E4,2.8634104E4,2.1558107E4,-1.3381644E4,-1.7779756E4,1.9791707E4,3.7063413E3,8.0002637E3,-1.6677408E4,2.6165895E4,1.0905542E3,2.8521742E4,4.261855E4,1.5078004E4,2.3907623E4,6.296831E3,-1.2160424E4,1.795847E4,7.7010107E3,1.5248607E3,-1.4449985E3,-3.5508594E3,-6.2136733E3,-3.5905728E3,-6.570324E3,-9.738316E3,-1.1226456E4,9.173675E3,-5.651832E3,2.5738123E4,1.2266791E4,-5.172525E3,-1.1751381E4,3.0161003E3,1.6189302E4],"categories":[],"categories_nodes":[],"categories_segments":[],"categories_sizes":[],"default_left":[1,1,1,1,1,1,1,1,1,1,1,1,1,1,1,1,1,1,1,1,1,1,1,1,1,1,1,1,1,1,1,1,1,1,1,1,1,1,1,1,1,1,1,1,1,1,1,1,1,0,0,1,1,1,1,1,1,1,1,1,1,1,1,0,0,0,0,0,0,0,0,0,0,0,0,0,0,0,0,0,0,0,0,0,0,0,0,0,0,0,0,0,0,0,0,0,0,0,0,0,0,0,0,0,0,0,0,0,0,0,0,0,0,0,0,0,0,0,0,0,0,0,0],"id":6,"left_children":[1,3,5,7,9,11,13,15,17,19,21,23,25,27,29,31,33,35,37,39,41,43,45,47,49,51,53,55,57,59,61,63,65,67,69,71,73,75,77,79,81,83,85,87,89,91,93,95,97,-1,-1,99,101,103,105,107,109,111,113,115,117,119,121,-1,-1,-1,-1,-1,-1,-1,-1,-1,-1,-1,-1,-1,-1,-1,-1,-1,-1,-1,-1,-1,-1,-1,-1,-1,-1,-1,-1,-1,-1,-1,-1,-1,-1,-1,-1,-1,-1,-1,-1,-1,-1,-1,-1,-1,-1,-1,-1,-1,-1,-1,-1,-1,-1,-1,-1,-1,-1,-1,-1],"loss_changes":[1.1340651E11,8.263172E10,4.1853583E10,2.2091183E11,2.0267408E11,5.408719E10,9.708628E10,1.3603484E10,6.7794305E10,1.11892636E11,4.8630406E11,3.6035353E11,3.5240575E11,9.256192E9,4.2125017E10,1.3318378E8,3.61144E10,1.1601668E11,1.0690068E10,4.535158E11,6.5435976E9,1.8845729E10,5.0110015E11,1.15229E11,8.731853E8,5.657395E10,7.7618135E10,8.5326106E8,1.4924513E9,9.617657E10,8.73676E10,3.715536E7,7.789957E7,2.1429699E9,1.3046882E10,1.3674617E11,1.2671496E9,2.0257546E9,7.7677527E9,6.9784125E9,1.8180571E10,1.9691794E10,5.2083098E8,5.0956288E8,6.8573594E9,3.2203735E9,5.2486445E11,2.1370887E11,1.5345264E11,0E0,0E0,9.665053E9,3.8242222E9,9.997309E10,4.612591E10,2.3050278E8,1.5931264E8,1.4698138E8,4.453581E7,5.3734343E10,3.2939393E10,2.5274122E9,4.238352E10,0E0,0E0,0E0,0E0,0E0,0E0,0E0,0E0,0E0,0E0,0E0,0E0,0E0,0E0,0E0,0E0,0E0,0E0,0E0,0E0,0E0,0E0,0E0,0E0,0E0,0E0,0E0,0E0,0E0,0E0,0E0,0E0,0E0,0E0,0E0,0E0,0E0,0E0,0E0,0E0,0E0,0E0,0E0,0E0,0E0,0E0,0E0,0E0,0E0,0E0,0E0,0E0,0E0,0E0,0E0,0E0,0E0,0E0,0E0,0E0],"parents":[2147483647,0,0,1,1,2,2,3,3,4,4,5,5,6,6,7,7,8,8,9,9,10,10,11,11,12,12,13,13,14,14,15,15,16,16,17,17,18,18,19,19,20,20,21,21,22,22,23,23,24,24,25,25,26,26,27,27,28,28,29,29,30,30,31,31,32,32,33,33,34,34,35,35,36,36,37,37,38,38,39,39,40,40,41,41,42,42,43,43,44,44,45,45,46,46,47,47,48,48,51,51,52,52,53,53,54,54,55,55,56,56,57,57,58,58,59,59,60,60,61,61,62,62],"right_children":[2,4,6,8,10,12,14,16,18,20,22,24,26,28,30,32,34,36,38,40,42,44,46,48,50,52,54,56,58,60,62,64,66,68,70,72,74,76,78,80,82,84,86,88,90,92,94,96,98,-1,-1,100,102,104,106,108,110,112,114,116,118,120,122,-1,-1,-1,-1,-1,-1,-1,-1,-1,-1,-1,-1,-1,-1,-1,-1,-1,-1,-1,-1,-1,-1,-1,-1,-1,-1,-1,-1,-1,-1,-1,-1,-1,-1,-1,-1,-1,-1,-1,-1,-1,-1,-1,-1,-1,-1,-1,-1,-1,-1,-1,-1,-1,-1,-1,-1,-1,-1,-1,-1],"split_conditions":[2.0155E3,1.55E1,3.95E1,7.5E0,2.15E1,2.75E1,4.15E1,1.5E0,1.45E1,1.85E1,2.25E1,2.65E1,2.95E1,4.05E1,4.65E1,2.0135E3,2.5E0,1.35E1,2.0135E3,1.75E1,2.05E1,5.15E1,2.35E1,2.35E1,8.95E1,2.85E1,3.45E1,2.395E2,8.95E1,4.45E1,4.75E1,2.95E1,1.345E2,3.45E1,5.5E0,1.25E1,3.405E2,1.245E2,5.45E1,1.65E1,2.0135E3,1.95E1,7.65E1,2.65E1,3.025E2,7.65E1,2.55E1,2.25E1,2.55E1,-6.0647515E3,-7.4433857E3,6.95E1,6.75E1,3.35E1,3.65E1,2.95E1,3.335E2,3E1,2.375E2,4.35E1,4.55E1,7.65E1,4.95E1,-2.7478039E1,-3.82349E2,-2.6059366E2,-5.7349655E1,1.1815626E3,2.642327E3,2.4237119E2,1.187655E3,2.5250974E3,6.197618E3,-1.0899287E2,-1.3789609E3,2.8094219E3,4.355471E3,3.4521946E3,6.263719E3,-2.1626995E3,-1.0898905E3,4.098429E3,6.7155044E3,-2.208679E3,-4.094618E2,-1.7846107E3,-2.3190386E3,3.860237E3,5.1680845E3,8.590231E3,6.4674326E3,-4.0144932E3,-5.333927E3,5.937512E3,1.1119025E3,2.400079E3,-5.0032227E3,7.8497686E3,3.2716626E2,8.556523E3,1.2785565E4,4.5234014E3,7.172287E3,1.8890494E3,-3.6481272E3,5.3875415E3,2.3103032E3,4.5745822E2,-4.3349957E2,-1.0652578E3,-1.864102E3,-1.0771719E3,-1.9710973E3,-2.921495E3,-3.367937E3,2.7521025E3,-1.6955497E3,7.721437E3,3.6800374E3,-1.5517576E3,-3.5254143E3,9.0483014E2,4.8567905E3],"split_indices":[1,0,0,0,0,0,0,0,0,0,0,0,0,0,0,1,0,0,1,0,0,5,0,0,5,0,0,5,5,0,0,5,5,5,0,0,5,5,5,0,1,0,5,5,5,5,0,0,0,0,0,5,5,0,0,6,5,6,5,0,0,5,0,0,0,0,0,0,0,0,0,0,0,0,0,0,0,0,0,0,0,0,0,0,0,0,0,0,0,0,0,0,0,0,0,0,0,0,0,0,0,0,0,0,0,0,0,0,0,0,0,0,0,0,0,0,0,0,0,0,0,0,0],"split_type":[0,0,0,0,0,0,0,0,0,0,0,0,0,0,0,0,0,0,0,0,0,0,0,0,0,0,0,0,0,0,0,0,0,0,0,0,0,0,0,0,0,0,0,0,0,0,0,0,0,0,0,0,0,0,0,0,0,0,0,0,0,0,0,0,0,0,0,0,0,0,0,0,0,0,0,0,0,0,0,0,0,0,0,0,0,0,0,0,0,0,0,0,0,0,0,0,0,0,0,0,0,0,0,0,0,0,0,0,0,0,0,0,0,0,0,0,0,0,0,0,0,0,0],"sum_hessian":[7.305E4,5.475E4,1.83E4,1.6425E4,3.8325E4,1.4274E4,4.026E3,7.665E3,8.76E3,6.57E3,3.1755E4,9.882E3,4.392E3,7.32E2,3.294E3,1.095E3,6.57E3,7.665E3,1.095E3,3.285E3,3.285E3,1.095E3,3.066E4,9.516E3,3.66E2,7.32E2,3.66E3,3.66E2,3.66E2,1.83E3,1.464E3,3.65E2,7.3E2,1.095E3,5.475E3,6.57E3,1.095E3,3.65E2,7.3E2,2.19E3,1.095E3,2.19E3,1.095E3,1.53E2,9.42E2,1.095E3,2.9565E4,8.418E3,1.098E3,8.9E1,2.77E2,3.66E2,3.66E2,1.83E3,1.83E3,2.39E2,1.27E2,8.9E1,2.77E2,1.098E3,7.32E2,3.66E2,1.098E3,2.9E1,3.36E2,2.68E2,4.62E2,1.02E2,9.93E2,3.285E3,2.19E3,5.475E3,1.095E3,1.02E3,7.5E1,1.24E2,2.41E2,1.08E2,6.22E2,1.095E3,1.095E3,3.65E2,7.3E2,1.095E3,1.095E3,2.28E2,8.67E2,7.8E1,7.5E1,7.53E2,1.89E2,2.28E2,8.67E2,2.19E3,2.7375E4,8.052E3,3.66E2,7.32E2,3.66E2,6.9E1,2.97E2,6.7E1,2.99E2,1.464E3,3.66E2,7.32E2,1.098E3,2.9E1,2.1E2,9.4E1,3.3E1,2.9E1,6E1,1.48E2,1.29E2,7.32E2,3.66E2,3.66E2,3.66E2,7.6E1,2.9E2,7.32E2,3.66E2],"tree_param":{"num_deleted":"0","num_feature":"15","num_nodes":"123","size_leaf_vector":"0"}},{"base_weights":[3.7386191E3,2.145289E3,4.608564E3,6.0004443E2,2.7433838E3,6.618545E3,3.0277458E3,-6.042872E2,1.0015258E3,2.6169497E3,8.915035E3,6.398483E3,1.7360379E4,3.629677E3,1.0614923E3,-2.144336E3,-1.6305678E2,2.1485747E3,5.0949518E2,2.7816763E3,-5.2761846E3,8.034542E3,1.1206712E4,6.9051304E3,-1.3694221E3,1.407127E4,2.0566426E4,4.180235E3,1.6771996E3,9.3368134E2,7.266659E3,-2.826242E3,-1.3328876E3,-2.8235483E2,5.4907114E3,3.8705606E2,4.786185E3,-4.977676E3,8.4335394E2,1.230062E3,3.2987505E3,-2.4673804E3,-7.3745005E3,6.3855107E3,8.430673E3,6.432073E3,1.729218E4,-8.818744E3,2.361354E3,1.2447325E4,1.5561201E4,1.7328045E4,2.1140146E4,3.072969E3,6.6704375E3,-5.8420596E3,3.3492903E3,1.2018025E3,-3.169711E3,7.953747E3,5.0212563E3,-2.495645E3,-1.0189408E4,4.56045E3,-1.9178215E3,1.0945039E2,-1.6318376E3,1.2906125E3,-6.78692E3,3.6058843E3,7.119292E3,-3.5027666E3,-7.8391025E3,1.02483545E4,5.4656824E2,1.8354161E3,3.055849E2,7.6918726E2,3.592797E3,-3.0856023E3,-1.9701747E3,-5.5141177E3,-7.9411206E3,7.65175E3,9.132249E3,7.31353E3,-4.4350192E2,2.52024E4,9.340491E3,-7.292819E3,-1.0302474E4,1.0735645E4,-6.0185996E3,4.0726848E3,-2.286565E4,2.3010607E4,3.39753E3,-2.889384E3,-8.780346E3,2.4617634E3,1.0425953E4,8.635628E2,8.609724E3,-7.7639766E3,-8.50623E2,5.584887E3,2.960323E3],"categories":[],"categories_nodes":[],"categories_segments":[],"categories_sizes":[],"default_left":[1,1,1,1,1,1,1,1,1,1,1,1,1,1,1,1,1,1,1,1,1,1,0,1,1,1,1,1,1,1,1,1,1,1,0,1,1,1,1,1,1,1,1,0,1,1,1,1,1,0,0,0,0,1,1,1,1,1,1,0,1,0,0,0,0,0,0,0,0,0,0,0,0,0,0,0,0,0,0,0,0,0,0,0,0,0,0,0,0,0,0,0,0,0,0,0,0,0,0,0,0,0,0,0,0,0,0],"id":7,"left_children":[1,3,5,7,9,11,13,15,17,19,21,23,25,27,29,31,33,35,37,39,41,43,-1,45,47,49,51,53,55,57,59,61,63,65,-1,67,69,71,73,75,77,79,81,-1,83,85,87,89,91,-1,-1,-1,-1,93,95,97,99,101,103,-1,105,-1,-1,-1,-1,-1,-1,-1,-1,-1,-1,-1,-1,-1,-1,-1,-1,-1,-1,-1,-1,-1,-1,-1,-1,-1,-1,-1,-1,-1,-1,-1,-1,-1,-1,-1,-1,-1,-1,-1,-1,-1,-1,-1,-1,-1,-1],"loss_changes":[1.012467E11,2.3843709E10,1.5011604E11,3.4824095E9,1.4491189E10,4.9059725E10,3.1302205E10,1.2234593E9,3.0471393E9,2.3716184E10,6.625997E8,8.0236446E10,4.1078784E9,2.1761819E10,4.911157E9,2.1811878E8,9.465018E8,7.5296384E9,6.9307643E9,1.4322614E10,2.180176E9,1.2449792E8,0E0,9.392167E10,3.473272E10,3.1199232E8,2.1987328E7,4.353409E10,5.6044335E10,6.689765E9,1.5291085E8,5.028009E8,6.464807E8,7.26131E8,0E0,6.3158354E9,1.7615247E9,8.8835635E8,9.945276E9,2.4982144E9,9.959064E9,4.34096E7,1.8074214E8,0E0,4.8707584E7,1.10941176E11,5.2159955E10,8.689787E8,5.852136E10,0E0,0E0,0E0,0E0,2.8367723E11,2.5988746E11,7.0107075E9,2.2873866E10,1.4287317E10,3.9675261E9,0E0,2.0638272E7,0E0,0E0,0E0,0E0,0E0,0E0,0E0,0E0,0E0,0E0,0E0,0E0,0E0,0E0,0E0,0E0,0E0,0E0,0E0,0E0,0E0,0E0,0E0,0E0,0E0,0E0,0E0,0E0,0E0,0E0,0E0,0E0,0E0,0E0,0E0,0E0,0E0,0E0,0E0,0E0,0E0,0E0,0E0,0E0,0E0,0E0],"parents":[2147483647,0,0,1,1,2,2,3,3,4,4,5,5,6,6,7,7,8,8,9,9,10,10,11,11,12,12,13,13,14,14,15,15,16,16,17,17,18,18,19,19,20,20,21,21,23,23,24,24,25,25,26,26,27,27,28,28,29,29,30,30,31,31,32,32,33,33,35,35,36,36,37,37,38,38,39,39,40,40,41,41,42,42,44,44,45,45,46,46,47,47,48,48,53,53,54,54,55,55,56,56,57,57,58,58,60,60],"right_children":[2,4,6,8,10,12,14,16,18,20,22,24,26,28,30,32,34,36,38,40,42,44,-1,46,48,50,52,54,56,58,60,62,64,66,-1,68,70,72,74,76,78,80,82,-1,84,86,88,90,92,-1,-1,-1,-1,94,96,98,100,102,104,-1,106,-1,-1,-1,-1,-1,-1,-1,-1,-1,-1,-1,-1,-1,-1,-1,-1,-1,-1,-1,-1,-1,-1,-1,-1,-1,-1,-1,-1,-1,-1,-1,-1,-1,-1,-1,-1,-1,-1,-1,-1,-1,-1,-1,-1,-1,-1],"split_conditions":[1.295E2,3.65E1,2.335E2,2.0135E3,4.95E1,4.95E1,1.15E1,8.5E0,1.55E1,4.85E1,1.045E2,4.65E1,2.0145E3,3.95E1,4.95E1,2.75E1,4.95E1,9.5E0,1.75E1,2.0135E3,7.65E1,5.05E1,3.3620137E3,4.45E1,4.75E1,2.0135E3,1.475E2,2.75E1,4.15E1,4.65E1,2.0155E3,2.65E1,2.95E1,3.85E1,1.6472135E3,8.5E0,2.0155E3,2.0155E3,1.85E1,2.95E1,5.5E0,2.85E1,8.95E1,1.9156533E3,2.0145E3,3.95E1,4.55E1,2.0145E3,4.85E1,3.7341978E3,4.6683604E3,5.1984136E3,6.3420444E3,2.65E1,2.95E1,4.05E1,4.95E1,4.45E1,4.75E1,2.3861243E3,2.35E1,-7.4869354E2,-3.0568225E3,1.3681351E3,-5.753465E2,3.283512E1,-4.895513E2,3.8718378E2,-2.036076E3,1.0817654E3,2.1357876E3,-1.0508301E3,-2.351731E3,3.0745066E3,1.6397047E2,5.506249E2,9.1675476E1,2.3075618E2,1.0778392E3,-9.256807E2,-5.910524E2,-1.6542354E3,-2.3823362E3,2.2955251E3,2.7396748E3,2.194059E3,-1.3305058E2,7.56072E3,2.8021475E3,-2.1878457E3,-3.0907422E3,3.2206936E3,-1.80558E3,1.2218055E3,-6.8596953E3,6.9031826E3,1.01925903E3,-8.6681525E2,-2.6341038E3,7.3852905E2,3.1277861E3,2.5906885E2,2.5829172E3,-2.329193E3,-2.551869E2,1.6754662E3,8.880969E2],"split_indices":[5,5,5,1,0,0,2,5,0,0,5,0,1,0,0,0,0,0,0,1,5,5,0,0,0,1,5,0,0,0,1,0,0,0,0,0,1,1,0,0,0,6,5,0,1,0,0,1,0,0,0,0,0,0,0,0,0,0,0,0,3,0,0,0,0,0,0,0,0,0,0,0,0,0,0,0,0,0,0,0,0,0,0,0,0,0,0,0,0,0,0,0,0,0,0,0,0,0,0,0,0,0,0,0,0,0,0],"split_type":[0,0,0,0,0,0,0,0,0,0,0,0,0,0,0,0,0,0,0,0,0,0,0,0,0,0,0,0,0,0,0,0,0,0,0,0,0,0,0,0,0,0,0,0,0,0,0,0,0,0,0,0,0,0,0,0,0,0,0,0,0,0,0,0,0,0,0,0,0,0,0,0,0,0,0,0,0,0,0,0,0,0,0,0,0,0,0,0,0,0,0,0,0,0,0,0,0,0,0,0,0,0,0,0,0,0,0],"sum_hessian":[7.305E4,2.58E4,4.725E4,7.2E3,1.86E4,2.08E4,2.645E4,1.8E3,5.4E3,1.8228E4,3.72E2,2.0384E4,4.16E2,2.025E4,6.2E3,4E2,1.4E3,1.62E3,3.78E3,1.7856E4,3.72E2,2.72E2,1E2,1.9136E4,1.248E3,2.08E2,2.08E2,1.5795E4,4.455E3,6.076E3,1.24E2,2.16E2,1.84E2,1.372E3,2.8E1,9.72E2,6.48E2,2.16E2,3.564E3,4.464E3,1.3392E4,1.6E2,2.12E2,5.6E1,2.16E2,1.8304E4,8.32E2,4.16E2,8.32E2,1.04E2,1.04E2,3.6E1,1.72E2,1.0935E4,4.86E3,8.1E2,3.645E3,5.704E3,3.72E2,9.3E1,3.1E1,2.08E2,8E0,1.6E1,1.68E2,1.064E3,3.08E2,8.64E2,1.08E2,4.32E2,2.16E2,1.44E2,7.2E1,1.08E2,3.456E3,2.697E3,1.767E3,1.395E3,1.1997E4,6.9E1,9.1E1,5.2E1,1.6E2,1.08E2,1.08E2,1.6224E4,2.08E3,4.16E2,4.16E2,2.08E2,2.08E2,4.16E2,4.16E2,1.053E4,4.05E2,8.1E2,4.05E3,4.05E2,4.05E2,3.24E3,4.05E2,5.456E3,2.48E2,1.24E2,2.48E2,2.3E1,8E0],"tree_param":{"num_deleted":"0","num_feature":"15","num_nodes":"107","size_leaf_vector":"0"}},{"base_weights":[2.6176172E3,1.0248506E3,3.1480266E3,9.1514484E2,6.3832427E3,1.8600564E3,3.9028396E3,1.3446395E3,-7.597939E2,4.2015474E3,6.78884E3,2.2648604E3,4.246563E2,5.2877686E3,2.3155327E3,3.671673E2,3.5433662E3,-5.7048433E3,4.7799826E2,3.0303386E3,4.4921255E3,7.6597363E3,5.2258877E3,1.2614913E3,4.5217163E3,-5.731082E3,1.7937949E3,1.370071E3,5.7229595E3,3.6724792E3,1.7337098E3,1.181378E3,-2.07477E4,2.3520484E4,1.72186E3,-3.275255E3,-8.1188447E3,2.1530654E3,-2.3131978E3,6.1854766E3,8.719667E3,5.3696016E3,3.568832E3,2.1398892E3,-2.1525871E4,1.9315244E4,1.5589731E3,-3.1800562E3,-8.267992E3,-5.854773E2,2.9831824E3,3.1214463E3,-1.2576609E3,9.837783E3,4.546625E3,9.4903064E2,7.755048E3,-2.7083665E3,2.6529517E3,6.8100635E2,5.0134395E3,-1.2198523E4,-2.1700963E4,1.2505711E4,2.494813E4,1.0104487E4,8.8105927E2,-2.8339507E3,-6.440392E3,-7.756366E3,-1.1659824E4,-3.9236063E2,5.966518E3,-5.720987E3,-6.038079E2,6.2163174E3,1.797416E3,9.392268E3,7.0575195E3,1.5108252E3,6.9575044E3,-2.4015736E4,-1.6406168E4,2.5869553E4,1.271336E4,-9.496044E3,2.789576E3,-4.8107134E3,-2.3499844E3,-9.3879375E3,-5.975542E3,2.9806172E3,-7.707441E3,1.2260666E4,1.1225499E3,-1.3994761E3,5.380742E3,-7.239059E2,-1.7880167E3,6.036661E3,1.2367995E4,-6.62129E3,5.2239565E3,1.4771813E3,-3.267667E3,9.021514E3,3.6449275E3,5.480431E2,-5.9619756E3,2.0033049E4,2.030081E3],"categories":[],"categories_nodes":[],"categories_segments":[],"categories_sizes":[],"default_left":[1,1,1,1,1,1,1,1,1,1,1,1,1,1,1,1,1,1,1,0,0,1,1,1,1,1,1,1,1,1,1,1,1,1,1,1,1,1,1,1,1,0,0,1,1,1,1,1,1,1,1,1,1,1,1,1,1,1,1,0,0,0,0,0,0,0,0,0,0,0,0,0,0,0,0,0,0,0,0,0,0,0,0,0,0,0,0,0,0,0,0,0,0,0,0,0,0,0,0,0,0,0,0,0,0,0,0,0,0,0,0],"id":8,"left_children":[1,3,5,7,9,11,13,15,17,19,21,23,25,27,29,31,33,35,37,-1,-1,39,41,43,45,47,49,51,53,55,57,59,61,63,65,67,69,71,73,75,77,-1,-1,79,81,83,85,87,89,91,93,95,97,99,101,103,105,107,109,-1,-1,-1,-1,-1,-1,-1,-1,-1,-1,-1,-1,-1,-1,-1,-1,-1,-1,-1,-1,-1,-1,-1,-1,-1,-1,-1,-1,-1,-1,-1,-1,-1,-1,-1,-1,-1,-1,-1,-1,-1,-1,-1,-1,-1,-1,-1,-1,-1,-1,-1,-1],"loss_changes":[6.1711614E10,1.0722939E10,5.326894E10,1.2867804E10,2.953472E8,1.1765998E10,7.594148E10,3.0594626E10,2.2350289E10,6.806976E6,3.7784883E8,3.5763683E10,3.756571E10,3.1450137E10,1.2705415E10,1.6946838E11,1.593773E11,4.2607473E9,1.3661943E10,0E0,0E0,2.5077555E8,7.746816E6,2.189451E11,2.1302474E11,5.222275E9,1.0319478E10,8.4994847E9,8.033514E10,5.370692E10,4.6030533E10,1.8195149E10,2.71804E9,5.44342E9,2.8296346E10,4.929728E8,3.7933056E8,1.772707E10,6.3810094E9,3.29728E5,5.780787E7,0E0,0E0,3.1904612E10,4.7814246E9,3.4763702E10,5.5137657E10,5.382413E8,9.862738E8,3.090645E10,4.1950126E10,1.1324756E10,2.079017E8,3.5424076E10,9.773613E10,6.4610493E9,1.0029015E10,2.0483564E10,1.0105916E11,0E0,0E0,0E0,0E0,0E0,0E0,0E0,0E0,0E0,0E0,0E0,0E0,0E0,0E0,0E0,0E0,0E0,0E0,0E0,0E0,0E0,0E0,0E0,0E0,0E0,0E0,0E0,0E0,0E0,0E0,0E0,0E0,0E0,0E0,0E0,0E0,0E0,0E0,0E0,0E0,0E0,0E0,0E0,0E0,0E0,0E0,0E0,0E0,0E0,0E0,0E0,0E0],"parents":[2147483647,0,0,1,1,2,2,3,3,4,4,5,5,6,6,7,7,8,8,9,9,10,10,11,11,12,12,13,13,14,14,15,15,16,16,17,17,18,18,21,21,22,22,23,23,24,24,25,25,26,26,27,27,28,28,29,29,30,30,31,31,32,32,33,33,34,34,35,35,36,36,37,37,38,38,39,39,40,40,43,43,44,44,45,45,46,46,47,47,48,48,49,49,50,50,51,51,52,52,53,53,54,54,55,55,56,56,57,57,58,58],"right_children":[2,4,6,8,10,12,14,16,18,20,22,24,26,28,30,32,34,36,38,-1,-1,40,42,44,46,48,50,52,54,56,58,60,62,64,66,68,70,72,74,76,78,-1,-1,80,82,84,86,88,90,92,94,96,98,100,102,104,106,108,110,-1,-1,-1,-1,-1,-1,-1,-1,-1,-1,-1,-1,-1,-1,-1,-1,-1,-1,-1,-1,-1,-1,-1,-1,-1,-1,-1,-1,-1,-1,-1,-1,-1,-1,-1,-1,-1,-1,-1,-1,-1,-1,-1,-1,-1,-1,-1,-1,-1,-1,-1,-1],"split_conditions":[2.0135E3,4.95E1,1.355E2,3.95E1,2.5E0,3.95E1,2.585E2,2.75E1,4.15E1,1.45E1,2.535E2,2.75E1,4.15E1,5.5E0,1.55E1,2.65E1,2.85E1,4.05E1,4.65E1,9.091016E2,1.3476377E3,1.435E2,3.545E2,2.65E1,2.95E1,4.05E1,4.45E1,3.5E0,1.55E1,9.5E0,2.15E1,2.35E1,3.85E1,4.35E1,2.95E1,3.225E2,1.15E1,4.45E1,4.75E1,3.05E1,2.185E2,1.6108805E3,1.0706497E3,2.35E1,2.0155E3,2.85E1,3.05E1,2.0145E3,2.0155E3,4.35E1,4.55E1,1.5E0,4.5E0,9.5E0,1.75E1,8.5E0,3.405E2,1.85E1,2.25E1,2.0430191E2,1.5040319E3,-3.6595571E3,-6.510289E3,3.7517134E3,7.4844395E3,3.0313462E3,2.6431778E2,-8.5018524E2,-1.9321177E3,-2.32691E3,-3.4979475E3,-1.1770819E2,1.7899554E3,-1.7162961E3,-1.8114238E2,1.8648953E3,5.3922485E2,2.8176804E3,2.1172559E3,4.532476E2,2.0872515E3,-7.204721E3,-4.9218506E3,7.760866E3,3.8140083E3,-2.8488132E3,8.368728E2,-1.4432141E3,-7.0499536E2,-2.8163813E3,-1.7926627E3,8.941852E2,-2.3122324E3,3.6782E3,3.3676498E2,-4.1984283E2,1.6142228E3,-2.1717177E2,-5.36405E2,1.8109984E3,3.7103987E3,-1.9863871E3,1.567187E3,4.431544E2,-9.803001E2,2.706454E3,1.0934783E3,1.6441293E2,-1.7885928E3,6.009915E3,6.0902435E2],"split_indices":[1,0,5,0,2,0,5,0,0,5,5,0,0,0,0,0,0,0,0,0,0,5,5,0,0,0,0,0,0,0,0,0,5,5,0,5,2,0,0,3,5,0,0,0,1,0,0,1,1,0,0,0,0,0,0,0,5,0,0,0,0,0,0,0,0,0,0,0,0,0,0,0,0,0,0,0,0,0,0,0,0,0,0,0,0,0,0,0,0,0,0,0,0,0,0,0,0,0,0,0,0,0,0,0,0,0,0,0,0,0,0],"split_type":[0,0,0,0,0,0,0,0,0,0,0,0,0,0,0,0,0,0,0,0,0,0,0,0,0,0,0,0,0,0,0,0,0,0,0,0,0,0,0,0,0,0,0,0,0,0,0,0,0,0,0,0,0,0,0,0,0,0,0,0,0,0,0,0,0,0,0,0,0,0,0,0,0,0,0,0,0,0,0,0,0,0,0,0,0,0,0,0,0,0,0,0,0,0,0,0,0,0,0,0,0,0,0,0,0,0,0,0,0,0,0],"sum_hessian":[7.305E4,1.825E4,5.48E4,1.7885E4,3.65E2,2.025E4,3.455E4,1.4235E4,3.65E3,5.9E1,3.06E2,1.5795E4,4.455E3,1.845E4,1.61E4,9.855E3,4.38E3,7.3E2,2.92E3,1.4E1,4.5E1,1.94E2,1.12E2,1.0935E4,4.86E3,8.1E2,3.645E3,1.845E3,1.6605E4,4.83E3,1.127E4,9.49E3,3.65E2,3.65E2,4.015E3,3.65E2,3.65E2,1.825E3,1.095E3,8.4E1,1.1E2,1.01E2,1.1E1,1.053E4,4.05E2,8.1E2,4.05E3,4.05E2,4.05E2,1.215E3,2.43E3,1.107E3,7.38E2,3.69E3,1.2915E4,2.898E3,1.932E3,1.932E3,9.338E3,8.395E3,1.095E3,3.8E1,3.27E2,4.3E1,3.22E2,3.65E2,3.65E3,3.22E2,4.3E1,3.34E2,3.1E1,1.095E3,7.3E2,3.65E2,7.3E2,8.3E1,1E0,7.5E1,3.5E1,9.315E3,1.215E3,2.7E2,1.35E2,4.05E2,4.05E2,4.05E2,3.645E3,1.35E2,2.7E2,2.7E2,1.35E2,8.1E2,4.05E2,4.05E2,2.025E3,3.69E2,7.38E2,3.69E2,3.69E2,1.476E3,2.214E3,7.38E2,1.2177E4,2.576E3,3.22E2,1.476E3,4.56E2,9.66E2,9.66E2,3.22E2,9.016E3],"tree_param":{"num_deleted":"0","num_feature":"15","num_nodes":"111","size_leaf_vector":"0"}},{"base_weights":[1.8325942E3,1.406191E3,3.1081624E3,1.2943757E3,6.87896E3,-2.7937595E2,3.4845496E3,1.4303794E3,-5.229151E3,4.5018154E3,8.0597476E3,1.3661183E3,-2.7461138E3,6.8389224E3,2.7588284E3,2.484965E3,9.5096686E2,-3.204461E3,-5.877387E3,2.7625833E3,4.7556533E3,5.7966655E3,9.061055E3,-1.9348765E3,3.0170037E3,-2.1998257E3,-3.284919E3,4.967394E3,1.989039E4,-6.4407446E2,3.6975325E3,2.2100737E2,4.465677E3,-1.218246E3,2.190516E3,-4.1495977E3,-2.410096E3,-5.1960513E3,-6.5744536E3,9.724414E2,2.8180693E3,5.310628E3,3.657969E3,5.033145E3,6.5093384E3,1.1083509E4,6.9372314E3,-4.0816067E3,-1.6523687E3,6.054859E3,-2.9072388E1,-3.3573218E3,-1.9626691E3,-4.086202E3,-2.9260579E3,1.8660337E3,6.206241E3,1.5426162E4,2.1550484E4,3.2269148E3,-7.092789E3,2.6288408E4,2.8882292E3,-1.745539E3,5.4898083E2,1.0239089E4,3.6396755E3,4.5046426E2,-1.955772E4,1.6781168E4,6.539252E2,-2.4086846E3,-4.979571E3,-1.8968011E3,-3.7485718E3,-4.412595E3,-5.570803E3,-7.520147E3,-5.664831E3,4.3501006E3,6.185615E3,3.0464717E3,3.9509539E3,3.4112183E3,5.521549E3,5.1471016E3,7.3881147E3,9.19242E3,1.288868E4,7.461275E3,5.5183438E3,-1.1550508E3,-2.6318452E3,6.8500195E3,8.765398E2,2.8796713E2,-1.9128154E3,-1.4981184E3,-2.6839917E3,-4.453051E3,-3.584334E3,-2.1308728E3,-3.816137E3,9.7909735E2,2.4444365E3,1.4618935E4,4.094525E3,1.2723439E4,1.6465088E4,2.2964959E4,1.6334953E4,-5.375725E2,1.8245299E4,-5.921656E3,-9.412539E3,1.4307087E4,2.8089596E4,-1.3831432E4,3.5088127E3],"categories":[],"categories_nodes":[],"categories_segments":[],"categories_sizes":[],"default_left":[1,1,1,1,1,1,1,1,1,1,1,1,1,1,1,1,1,1,1,1,1,1,1,1,1,1,1,1,1,1,1,1,1,1,1,1,1,1,1,0,0,1,1,1,1,1,1,0,1,1,1,0,1,1,1,1,1,1,1,1,1,1,1,0,0,0,0,0,0,0,0,0,0,0,0,0,0,0,0,0,0,0,0,0,0,0,0,0,0,0,0,0,0,0,0,0,0,0,0,0,0,0,0,0,0,0,0,0,0,0,0,0,0,0,0,0,0,0,0],"id":9,"left_children":[1,3,5,7,9,11,13,15,17,19,21,23,25,27,29,31,33,35,37,39,41,43,45,47,49,51,53,55,57,59,61,63,65,67,69,71,73,75,77,-1,-1,79,81,83,85,87,89,-1,91,93,95,-1,97,99,101,103,105,107,109,111,113,115,117,-1,-1,-1,-1,-1,-1,-1,-1,-1,-1,-1,-1,-1,-1,-1,-1,-1,-1,-1,-1,-1,-1,-1,-1,-1,-1,-1,-1,-1,-1,-1,-1,-1,-1,-1,-1,-1,-1,-1,-1,-1,-1,-1,-1,-1,-1,-1,-1,-1,-1,-1,-1,-1,-1,-1,-1],"loss_changes":[3.9728546E10,3.3495376E10,2.3335223E10,4.7612355E10,3.04008E9,7.4357847E9,4.007715E10,2.6571514E10,1.4196429E9,1.4844467E8,1.6039526E9,5.9949076E9,2.0852736E8,7.144553E10,4.3263017E10,7.365725E10,9.716681E10,1.9120922E8,3.595612E8,2.126624E6,1.7429504E8,9.075712E7,2.0922532E9,2.158295E8,6.7830195E9,9.415514E7,9.357389E7,9.835749E9,2.387411E9,7.313923E10,1.9399672E11,4.9453363E9,4.17426E10,4.0216638E11,5.1555625E11,1.6283994E8,9.457056E7,9.990554E7,3.066491E8,0E0,0E0,1.4874624E8,7.67104E6,7.147059E7,9.844224E7,7.588536E8,1.4397338E8,0E0,1.5575827E8,1.505153E9,2.1973093E8,0E0,9.885197E7,4.475136E6,1.7376717E8,3.736407E8,3.2468271E10,7.972454E7,1.5798354E9,1.0352818E11,2.9299548E9,7.518208E9,1.0639161E11,0E0,0E0,0E0,0E0,0E0,0E0,0E0,0E0,0E0,0E0,0E0,0E0,0E0,0E0,0E0,0E0,0E0,0E0,0E0,0E0,0E0,0E0,0E0,0E0,0E0,0E0,0E0,0E0,0E0,0E0,0E0,0E0,0E0,0E0,0E0,0E0,0E0,0E0,0E0,0E0,0E0,0E0,0E0,0E0,0E0,0E0,0E0,0E0,0E0,0E0,0E0,0E0,0E0,0E0,0E0,0E0],"parents":[2147483647,0,0,1,1,2,2,3,3,4,4,5,5,6,6,7,7,8,8,9,9,10,10,11,11,12,12,13,13,14,14,15,15,16,16,17,17,18,18,19,19,20,20,21,21,22,22,23,23,24,24,25,25,26,26,27,27,28,28,29,29,30,30,31,31,32,32,33,33,34,34,35,35,36,36,37,37,38,38,41,41,42,42,43,43,44,44,45,45,46,46,48,48,49,49,50,50,52,52,53,53,54,54,55,55,56,56,57,57,58,58,59,59,60,60,61,61,62,62],"right_children":[2,4,6,8,10,12,14,16,18,20,22,24,26,28,30,32,34,36,38,40,42,44,46,48,50,52,54,56,58,60,62,64,66,68,70,72,74,76,78,-1,-1,80,82,84,86,88,90,-1,92,94,96,-1,98,100,102,104,106,108,110,112,114,116,118,-1,-1,-1,-1,-1,-1,-1,-1,-1,-1,-1,-1,-1,-1,-1,-1,-1,-1,-1,-1,-1,-1,-1,-1,-1,-1,-1,-1,-1,-1,-1,-1,-1,-1,-1,-1,-1,-1,-1,-1,-1,-1,-1,-1,-1,-1,-1,-1,-1,-1,-1,-1,-1,-1,-1,-1],"split_conditions":[2.0155E3,4.95E1,5.5E0,4.85E1,2.0135E3,3.5E0,1.35E1,1.55E1,8.95E1,4.85E1,1.135E2,1.5E0,4.5E0,1.25E1,2.15E1,7.5E0,2.75E1,4.05E1,2.305E2,2.5E0,2.565E2,2.0145E3,2.415E2,4.15E1,2.5E0,2.5E0,1.105E2,7.5E0,1.025E2,1.85E1,2.25E1,1.5E0,8.5E0,2.65E1,2.95E1,2.0135E3,7.65E1,2.0135E3,2.955E2,2.9173242E2,8.4542084E2,1.505E2,2.955E2,2.9E1,4.75E1,2.0145E3,3.305E2,-1.224482E3,2.585E2,3.175E2,3.145E2,-1.0071966E3,2.485E2,5.95E1,2.475E2,1.455E2,8.5E0,3.25E1,3.075E2,1.75E1,2.05E1,4.95E1,2.35E1,-5.236617E2,1.6469426E2,3.0717268E3,1.0919027E3,1.3513928E2,-5.8673164E3,5.0343506E3,1.9617757E2,-7.226054E2,-1.4938713E3,-5.6904034E2,-1.1245715E3,-1.3237786E3,-1.6712411E3,-2.2560442E3,-1.6994493E3,1.3050303E3,1.8556847E3,9.139415E2,1.1852863E3,1.02336554E3,1.6564647E3,1.5441305E3,2.2164346E3,2.757726E3,3.866604E3,2.2383826E3,1.6555032E3,-3.4651526E2,-7.895536E2,2.0550059E3,2.6296194E2,8.6390144E1,-5.7384467E2,-4.4943555E2,-8.051976E2,-1.3359153E3,-1.0753003E3,-6.3926184E2,-1.1448412E3,2.9372922E2,7.33331E2,4.3856807E3,1.2283575E3,3.817032E3,4.9395264E3,6.889488E3,4.9004863E3,-1.6127176E2,5.47359E3,-1.7764968E3,-2.8237617E3,4.2921265E3,8.426879E3,-4.1494297E3,1.0526439E3],"split_indices":[1,0,0,0,1,0,0,0,5,5,5,0,0,0,0,0,0,5,5,5,5,1,5,5,0,2,5,0,5,0,0,0,0,0,0,1,5,1,5,0,0,5,5,6,5,1,5,0,5,5,5,0,5,5,5,5,0,5,5,0,0,5,0,0,0,0,0,0,0,0,0,0,0,0,0,0,0,0,0,0,0,0,0,0,0,0,0,0,0,0,0,0,0,0,0,0,0,0,0,0,0,0,0,0,0,0,0,0,0,0,0,0,0,0,0,0,0,0,0],"split_type":[0,0,0,0,0,0,0,0,0,0,0,0,0,0,0,0,0,0,0,0,0,0,0,0,0,0,0,0,0,0,0,0,0,0,0,0,0,0,0,0,0,0,0,0,0,0,0,0,0,0,0,0,0,0,0,0,0,0,0,0,0,0,0,0,0,0,0,0,0,0,0,0,0,0,0,0,0,0,0,0,0,0,0,0,0,0,0,0,0,0,0,0,0,0,0,0,0,0,0,0,0,0,0,0,0,0,0,0,0,0,0,0,0,0,0,0,0,0,0],"sum_hessian":[7.305E4,5.475E4,1.83E4,5.3655E4,1.095E3,1.83E3,1.647E4,5.256E4,1.095E3,3.65E2,7.3E2,1.098E3,7.32E2,2.928E3,1.3542E4,1.6425E4,3.6135E4,2.67E2,8.28E2,4.8E1,3.17E2,2.26E2,5.04E2,3.66E2,7.32E2,3.66E2,3.66E2,2.562E3,3.66E2,2.928E3,1.0614E4,7.665E3,8.76E3,1.314E4,2.2995E4,1.2E2,1.47E2,4.23E2,4.05E2,2E0,4.6E1,2.08E2,1.09E2,1.13E2,1.13E2,2.56E2,2.48E2,4.1E1,3.25E2,3.66E2,3.66E2,6E1,3.06E2,1.1E2,2.56E2,7.32E2,1.83E3,1.02E2,2.64E2,1.83E3,1.098E3,3.66E2,1.0248E4,1.095E3,6.57E3,1.095E3,7.665E3,1.2045E4,1.095E3,2.19E3,2.0805E4,4E1,8E1,1.08E2,3.9E1,1.41E2,2.82E2,1.95E2,2.1E2,1.02E2,1.06E2,3.9E1,7E1,2.8E1,8.5E1,4.7E1,6.6E1,1.28E2,1.28E2,1.78E2,7E1,2.17E2,1.08E2,3.17E2,4.9E1,3.14E2,5.2E1,1.88E2,1.18E2,5.9E1,5.1E1,1.37E2,1.19E2,2.9E2,4.42E2,3.66E2,1.464E3,3.2E1,7E1,2.05E2,5.9E1,1.464E3,3.66E2,7.32E2,3.66E2,4.9E1,3.17E2,3.66E2,9.882E3],"tree_param":{"num_deleted":"0","num_feature":"15","num_nodes":"119","size_leaf_vector":"0"}},{"base_weights":[1.2834503E3,-4.1606613E2,1.5344419E3,-9.07001E2,9.629951E1,1.9444872E3,5.259917E2,-9.8421814E2,2.84778E3,9.6434644E2,-2.759045E2,9.845972E2,2.71846E3,8.5636E2,-1.1364172E3,-1.4058259E3,-5.621921E2,3.3194482E3,1.3565975E3,5.0887134E2,7.26696E3,-5.1055073E3,1.8383402E1,1.9019125E3,5.9135547E2,3.5645444E3,1.7132804E3,-2.3314374E2,1.2210955E3,-1.3538647E3,5.616149E0,-1.6647626E3,-9.169748E2,2.4462465E2,-9.180725E2,1.8404829E3,4.0062788E3,1.7708765E3,9.6235315E2,8.067695E2,-3.3308374E3,5.829847E3,1.1155749E4,-4.4212036E3,-7.0206704E3,7.18612E3,-2.0797241E2,1.8120787E2,4.48183E3,-3.0851138E3,1.3522026E3,2.9971226E3,5.265428E3,1.2355046E3,3.1209836E3,-7.0518085E2,7.6969354E2,1.4234072E3,-1.1045094E3,-8.998116E2,-7.219585E3,7.2059443E3,-1.0374352E3,-1.5112802E3,-6.2947725E3,5.5697583E3,-1.3291112E3,-1.9352429E2,6.2574736E3,-4.9249526E3,-6.6460114E2,4.7571484E2,1.8775269E3,4.5813965E3,3.27091E3,6.6625696E2,1.2055692E3,2.887895E2,6.9525874E3,-3.9627083E3,-3.0666125E3,4.611954E3,6.327711E3,-3.6267786E3,-5.220783E3,-5.2699893E3,-8.618338E3,5.7867886E3,8.5501455E3,-4.1484243E3,2.0106212E2,1.145546E3,-7.5172773E3,3.4242979E3,9.747981E3,-7.8380486E1,-6.0893037E3,1.6329956E4,8.158867E2,3.742583E3,1.967044E3,5.972726E3,3.0210825E3,1.58124E3,9.526345E0,3.4987866E3,-1.2201207E3,-3.379511E2,-1.2664063E4,7.9963706E3,-2.69143E2,1.0682064E3,9.218558E3,-9.592646E3,1.7346573E3,-1.2735973E3,5.9693584E3,-9.164807E3,-3.2440718E3,-7.3257095E3,2.7715866E1],"categories":[],"categories_nodes":[],"categories_segments":[],"categories_sizes":[],"default_left":[1,1,1,1,1,1,1,1,1,1,1,1,1,1,1,1,1,1,1,1,1,1,1,1,1,1,1,1,1,1,1,1,1,1,1,1,1,0,1,1,1,1,0,1,1,1,1,1,1,1,1,1,1,1,1,1,1,1,1,1,1,0,1,0,0,0,0,0,0,0,0,0,0,0,0,0,0,0,0,0,0,0,0,0,0,0,0,0,0,0,0,0,0,0,0,0,0,0,0,0,0,0,0,0,0,0,0,0,0,0,0,0,0,0,0,0,0,0,0,0,0],"id":10,"left_children":[1,3,5,7,9,11,13,15,17,19,21,23,25,27,29,31,33,35,37,39,41,43,45,47,49,51,53,55,57,59,61,63,65,67,69,71,73,-1,75,77,79,81,-1,83,85,87,89,91,93,95,97,99,101,103,105,107,109,111,113,115,117,-1,119,-1,-1,-1,-1,-1,-1,-1,-1,-1,-1,-1,-1,-1,-1,-1,-1,-1,-1,-1,-1,-1,-1,-1,-1,-1,-1,-1,-1,-1,-1,-1,-1,-1,-1,-1,-1,-1,-1,-1,-1,-1,-1,-1,-1,-1,-1,-1,-1,-1,-1,-1,-1,-1,-1,-1,-1,-1,-1],"loss_changes":[3.1161598E10,2.3647974E9,2.6319323E10,1.394774E9,1.4868058E9,3.3615577E10,1.0106935E10,8.363679E8,6.372115E7,3.9607158E9,4.578081E9,7.2859177E9,2.1298938E10,6.100475E9,7.576691E8,2.963195E8,6.758421E8,6.6779776E7,2.378968E6,1.4770995E9,4.5470618E8,2.1141248E8,4.9289016E9,2.6905643E10,3.955982E10,1.3110804E10,7.697703E9,1.8235154E9,5.4127606E9,6.819666E9,3.6800184E9,1.0827172E9,2.1915863E9,1.9007025E9,1.6552493E9,3.70736E5,5.73792E6,0E0,2.77011E5,3.8085345E9,3.374848E6,1.3261056E7,0E0,6.93591E7,8.604083E7,1.2803379E8,4.747529E9,2.700949E10,1.3471748E10,2.1904052E10,9.410708E10,7.8258094E9,5.380776E9,3.624448E9,4.762145E9,1.1497471E10,9.258698E9,2.9287293E10,2.2212037E10,6.118485E9,1.3931868E9,0E0,2.8669307E9,0E0,0E0,0E0,0E0,0E0,0E0,0E0,0E0,0E0,0E0,0E0,0E0,0E0,0E0,0E0,0E0,0E0,0E0,0E0,0E0,0E0,0E0,0E0,0E0,0E0,0E0,0E0,0E0,0E0,0E0,0E0,0E0,0E0,0E0,0E0,0E0,0E0,0E0,0E0,0E0,0E0,0E0,0E0,0E0,0E0,0E0,0E0,0E0,0E0,0E0,0E0,0E0,0E0,0E0,0E0,0E0,0E0,0E0],"parents":[2147483647,0,0,1,1,2,2,3,3,4,4,5,5,6,6,7,7,8,8,9,9,10,10,11,11,12,12,13,13,14,14,15,15,16,16,17,17,18,18,19,19,20,20,21,21,22,22,23,23,24,24,25,25,26,26,27,27,28,28,29,29,30,30,31,31,32,32,33,33,34,34,35,35,36,36,38,38,39,39,40,40,41,41,43,43,44,44,45,45,46,46,47,47,48,48,49,49,50,50,51,51,52,52,53,53,54,54,55,55,56,56,57,57,58,58,59,59,60,60,62,62],"right_children":[2,4,6,8,10,12,14,16,18,20,22,24,26,28,30,32,34,36,38,40,42,44,46,48,50,52,54,56,58,60,62,64,66,68,70,72,74,-1,76,78,80,82,-1,84,86,88,90,92,94,96,98,100,102,104,106,108,110,112,114,116,118,-1,120,-1,-1,-1,-1,-1,-1,-1,-1,-1,-1,-1,-1,-1,-1,-1,-1,-1,-1,-1,-1,-1,-1,-1,-1,-1,-1,-1,-1,-1,-1,-1,-1,-1,-1,-1,-1,-1,-1,-1,-1,-1,-1,-1,-1,-1,-1,-1,-1,-1,-1,-1,-1,-1,-1,-1,-1,-1,-1],"split_conditions":[4.75E1,2.45E1,9.5E0,4.95E1,1.55E1,1.485E2,3.505E2,2.0145E3,2.0155E3,1.45E1,1.75E1,1.55E1,2.165E2,2.0135E3,4.25E1,3.25E1,1.55E1,2.0135E3,1.05E1,1.35E1,2.0155E3,2.0155E3,1.85E1,9.5E0,2.15E1,2.0155E3,2.0155E3,3.45E1,4.65E1,3.95E1,4.35E1,3.15E1,3.35E1,1.45E1,1.75E1,1.5E0,2.0145E3,5.3126294E2,1.85E1,1.25E1,2.0135E3,2.0135E3,3.3467249E3,3.65E1,3.65E1,3.65E1,2.15E1,8.5E0,1.45E1,1.85E1,2.25E1,2.95E1,3.85E1,3.95E1,4.65E1,3.35E1,3.65E1,4.45E1,4.75E1,3.75E1,4.15E1,2.1617834E3,4.45E1,-4.5338406E2,-1.8884318E3,1.6709276E3,-3.9873337E2,-5.805729E1,1.8772422E3,-1.4774858E3,-1.9938036E2,1.4271446E2,5.6325806E2,1.374419E3,9.81273E2,1.9987709E2,3.6167078E2,8.663685E1,2.0857764E3,-1.1888125E3,-9.199838E2,1.3835863E3,1.8983134E3,-1.0880336E3,-1.566235E3,-1.5809968E3,-2.5855015E3,1.7360366E3,2.5650437E3,-1.2445273E3,6.0318638E1,3.4366382E2,-2.2551833E3,1.0272894E3,2.9243945E3,-2.3514147E1,-1.8267911E3,4.898987E3,2.4476602E2,1.1227749E3,5.901132E2,1.7918179E3,9.0632477E2,4.74372E2,2.8579037E0,1.049636E3,-3.6603622E2,-1.0138534E2,-3.7992192E3,2.3989114E3,-8.0742905E1,3.2046194E2,2.7655674E3,-2.877794E3,5.203972E2,-3.820792E2,1.7908076E3,-2.7494421E3,-9.7322156E2,-2.197713E3,8.31476E0],"split_indices":[5,5,2,0,0,5,5,1,1,0,0,0,5,1,0,0,0,1,3,0,1,1,0,0,0,1,1,0,0,0,0,0,0,0,0,3,1,0,3,0,1,1,0,5,5,5,0,0,0,0,0,0,0,0,0,0,0,0,0,0,0,0,0,0,0,0,0,0,0,0,0,0,0,0,0,0,0,0,0,0,0,0,0,0,0,0,0,0,0,0,0,0,0,0,0,0,0,0,0,0,0,0,0,0,0,0,0,0,0,0,0,0,0,0,0,0,0,0,0,0,0],"split_type":[0,0,0,0,0,0,0,0,0,0,0,0,0,0,0,0,0,0,0,0,0,0,0,0,0,0,0,0,0,0,0,0,0,0,0,0,0,0,0,0,0,0,0,0,0,0,0,0,0,0,0,0,0,0,0,0,0,0,0,0,0,0,0,0,0,0,0,0,0,0,0,0,0,0,0,0,0,0,0,0,0,0,0,0,0,0,0,0,0,0,0,0,0,0,0,0,0,0,0,0,0,0,0,0,0,0,0,0,0,0,0,0,0,0,0,0,0,0,0,0,0],"sum_hessian":[7.305E4,9.4E3,6.365E4,4.8E3,4.6E3,4.525E4,1.84E4,4.704E3,9.6E1,1.38E3,3.22E3,2.02E4,2.505E4,1.535E4,3.05E3,2.352E3,2.352E3,7.2E1,2.4E1,1.288E3,9.2E1,1.84E2,3.036E3,6.06E3,1.414E4,1.36E4,1.145E4,3.85E3,1.15E4,2.562E3,4.88E2,1.536E3,8.16E2,7.2E2,1.632E3,2.4E1,4.8E1,1E1,1.4E1,1.196E3,9.2E1,6.9E1,2.3E1,1.38E2,4.6E1,9.2E1,2.944E3,3.636E3,2.424E3,2.424E3,1.1716E4,1.02E4,3.4E3,8.55E3,2.9E3,2.618E3,1.232E3,1.058E4,9.2E2,2.379E3,1.83E2,6.1E1,4.27E2,1.488E3,4.8E1,4.8E1,7.68E2,6.72E2,4.8E1,9.6E1,1.536E3,1E0,2.3E1,2.4E1,2.4E1,8E0,6E0,1.104E3,9.2E1,2.3E1,6.9E1,2.3E1,4.6E1,7.2E1,6.6E1,2.4E1,2.2E1,4.8E1,4.4E1,2.76E2,2.668E3,3.232E3,4.04E2,2.02E3,4.04E2,1.212E3,1.212E3,4.04E2,1.1312E4,5.916E3,4.284E3,2.584E3,8.16E2,6.669E3,1.881E3,2.668E3,2.32E2,2.541E3,7.7E1,1.54E2,1.078E3,1.012E4,4.6E2,2.3E2,6.9E2,2.257E3,1.22E2,1.22E2,6.1E1,6.1E1,3.66E2],"tree_param":{"num_deleted":"0","num_feature":"15","num_nodes":"121","size_leaf_vector":"0"}},{"base_weights":[8.986061E2,8.18485E2,4.8212935E3,9.3407214E2,-4.726542E3,3.0584424E3,5.5480264E3,8.4195795E2,5.259904E3,-3.8980261E3,-7.187924E3,2.0067654E3,3.3395925E3,7.078362E3,3.6380046E3,1.01934705E3,-7.313057E3,4.244018E3,6.2672163E3,-2.2990483E3,-4.410243E3,-3.3473499E3,-8.1794575E3,2.3320774E3,9.7432355E2,2.657745E3,4.0016787E3,4.946673E3,9.185388E3,3.9013347E3,2.3701174E3,7.5440546E2,6.84581E3,-4.3436475E3,-8.297097E3,1.3107687E3,4.6330854E3,6.5213394E3,4.5566543E3,-2.7362336E3,-1.8736301E3,-4.0260576E3,-4.8181577E3,-2.150743E3,-4.0254927E3,-7.498773E3,-8.921015E3,1.2591747E3,2.830324E3,1.3669132E3,6.925967E2,2.1702737E3,3.1856206E3,4.6269946E3,3.3292844E3,3.823953E3,6.035041E3,4.5156987E3,9.672783E3,2.7973513E3,4.2582617E3,2.756884E3,1.1899865E3,9.574536E2,-7.971349E3,1.1573432E4,2.1135056E3,-1.6815568E3,-5.0355E3,-4.9242075E3,-9.176377E3,5.2512256E2,2.0666245E3,3.951405E3,5.300422E3,5.8080605E3,7.209703E3,4.932145E3,3.0353167E3,-1.5788077E3,-3.2901475E3,-1.4480417E3,-2.8907603E3,-3.4709507E3,-4.2906406E3,-5.461158E3,-4.2254595E3,-2.7650735E3,-1.6495477E3,9.770067E2,1.6208984E3,3.221528E3,2.3211897E3,2.8515647E3,1.9381979E3,3.661813E3,2.23833E3,3.8882488E3,5.168795E3,1.6636445E3,3.4125913E3,3.2141094E3,4.114145E3,4.568115E3,6.6987256E3,9.974525E3,6.1429795E3,2.263134E3,3.2243445E3,5.125809E3,3.799922E3,1.7820134E3,3.1889668E3,1.379671E3,2.69125E2],"categories":[],"categories_nodes":[],"categories_segments":[],"categories_sizes":[],"default_left":[1,1,1,1,1,1,1,1,1,1,1,1,1,1,1,1,1,1,1,1,1,1,1,1,1,1,1,1,1,1,1,1,1,1,1,1,1,1,1,1,1,1,1,1,0,0,0,1,1,0,0,1,1,1,1,1,1,0,1,1,1,1,1,0,0,0,0,0,0,0,0,0,0,0,0,0,0,0,0,0,0,0,0,0,0,0,0,0,0,0,0,0,0,0,0,0,0,0,0,0,0,0,0,0,0,0,0,0,0,0,0,0,0,0,0],"id":11,"left_children":[1,3,5,7,9,11,13,15,17,19,21,23,25,27,29,31,33,35,37,39,41,43,45,47,49,51,53,55,57,59,61,63,65,67,69,71,73,75,77,79,81,83,85,87,-1,-1,-1,89,91,-1,-1,93,95,97,99,101,103,-1,105,107,109,111,113,-1,-1,-1,-1,-1,-1,-1,-1,-1,-1,-1,-1,-1,-1,-1,-1,-1,-1,-1,-1,-1,-1,-1,-1,-1,-1,-1,-1,-1,-1,-1,-1,-1,-1,-1,-1,-1,-1,-1,-1,-1,-1,-1,-1,-1,-1,-1,-1,-1,-1,-1,-1],"loss_changes":[2.295525E10,4.5888864E10,1.8560287E9,2.7939926E10,2.953429E9,1.2014438E8,2.996607E9,9.9343335E10,1.4694892E9,8.8751206E8,1.3701755E9,2.8963296E7,1.4150067E8,2.5282048E9,1.450025E8,1.0374042E11,4.235944E9,8.281682E8,2.884772E8,4.4717696E7,1.1051725E8,5.382547E7,7.999078E7,3.385603E7,1.707754E6,3.657421E7,5.5652864E7,3.2761754E8,6.095278E8,1.3821798E8,3.414704E7,1.1390449E11,6.537049E10,6.656215E8,3.2082002E9,5.057843E7,2.7247514E8,2.6990797E8,4.101171E7,7.815034E7,5.598416E7,4.8702464E7,1.2822323E8,4.675872E6,0E0,0E0,0E0,8.65976E5,1.883456E6,0E0,0E0,8.861248E6,2.7439936E7,1.3923968E7,6.117248E6,1.226048E7,1.0959462E8,0E0,2.1458534E8,1.4601152E7,9.424486E7,2.0011936E7,3.471508E6,0E0,0E0,0E0,0E0,0E0,0E0,0E0,0E0,0E0,0E0,0E0,0E0,0E0,0E0,0E0,0E0,0E0,0E0,0E0,0E0,0E0,0E0,0E0,0E0,0E0,0E0,0E0,0E0,0E0,0E0,0E0,0E0,0E0,0E0,0E0,0E0,0E0,0E0,0E0,0E0,0E0,0E0,0E0,0E0,0E0,0E0,0E0,0E0,0E0,0E0,0E0,0E0],"parents":[2147483647,0,0,1,1,2,2,3,3,4,4,5,5,6,6,7,7,8,8,9,9,10,10,11,11,12,12,13,13,14,14,15,15,16,16,17,17,18,18,19,19,20,20,21,21,22,22,23,23,24,24,25,25,26,26,27,27,28,28,29,29,30,30,31,31,32,32,33,33,34,34,35,35,36,36,37,37,38,38,39,39,40,40,41,41,42,42,43,43,47,47,48,48,51,51,52,52,53,53,54,54,55,55,56,56,58,58,59,59,60,60,61,61,62,62],"right_children":[2,4,6,8,10,12,14,16,18,20,22,24,26,28,30,32,34,36,38,40,42,44,46,48,50,52,54,56,58,60,62,64,66,68,70,72,74,76,78,80,82,84,86,88,-1,-1,-1,90,92,-1,-1,94,96,98,100,102,104,-1,106,108,110,112,114,-1,-1,-1,-1,-1,-1,-1,-1,-1,-1,-1,-1,-1,-1,-1,-1,-1,-1,-1,-1,-1,-1,-1,-1,-1,-1,-1,-1,-1,-1,-1,-1,-1,-1,-1,-1,-1,-1,-1,-1,-1,-1,-1,-1,-1,-1,-1,-1,-1,-1,-1,-1],"split_conditions":[4.95E1,4.85E1,1.075E2,4.75E1,2.0155E3,2.35E1,2.505E2,4.65E1,2.0145E3,8.95E1,7.65E1,2.0155E3,2.0145E3,2.0145E3,3.455E2,4.45E1,2.0135E3,4.35E1,3.175E2,4.35E1,2.335E2,3E1,2.335E2,2.0135E3,8.5E0,3.05E1,2.0155E3,2.0135E3,1.215E2,2.0135E3,2.0155E3,4.35E1,4.55E1,7.65E1,7.65E1,2.0135E3,2.0135E3,1.585E2,3.555E2,2.0135E3,7.65E1,2.0135E3,2.955E2,1.15E1,-1.2076478E3,-2.249632E3,-2.6763044E3,1.55E1,2.0145E3,4.1007397E2,2.07779E2,4.15E1,7.65E1,6.25E1,2.85E1,1.575E2,1.545E2,1.3547097E3,2.395E2,2.955E2,2.0145E3,2.0135E3,2.75E1,2.8723608E2,-2.3914048E3,3.4720295E3,6.340517E2,-5.0446704E2,-1.51065E3,-1.4772623E3,-2.752913E3,1.5753677E2,6.1998737E2,1.1854215E3,1.5901266E3,1.7424182E3,2.1629111E3,1.4796436E3,9.1059503E2,-4.7364233E2,-9.8704425E2,-4.3441254E2,-8.672281E2,-1.0412853E3,-1.2871923E3,-1.6383475E3,-1.267638E3,-8.295221E2,-4.9486435E2,2.9310202E2,4.8626956E2,9.6645844E2,6.9635693E2,8.554694E2,5.814594E2,1.098544E3,6.71499E2,1.1664747E3,1.5506385E3,4.9909338E2,1.0237774E3,9.6423285E2,1.2342435E3,1.3704346E3,2.0096178E3,2.9923577E3,1.8428939E3,6.7894025E2,9.673034E2,1.5377428E3,1.1399767E3,5.3460406E2,9.5669006E2,4.1390134E2,8.07375E1],"split_indices":[0,0,5,0,1,5,5,0,1,5,5,1,1,1,5,0,1,5,5,5,5,6,5,1,3,6,1,1,5,1,1,0,0,5,5,1,1,5,5,1,5,1,5,3,0,0,0,3,1,0,0,5,5,5,5,5,5,0,5,5,1,1,3,0,0,0,0,0,0,0,0,0,0,0,0,0,0,0,0,0,0,0,0,0,0,0,0,0,0,0,0,0,0,0,0,0,0,0,0,0,0,0,0,0,0,0,0,0,0,0,0,0,0,0,0],"split_type":[0,0,0,0,0,0,0,0,0,0,0,0,0,0,0,0,0,0,0,0,0,0,0,0,0,0,0,0,0,0,0,0,0,0,0,0,0,0,0,0,0,0,0,0,0,0,0,0,0,0,0,0,0,0,0,0,0,0,0,0,0,0,0,0,0,0,0,0,0,0,0,0,0,0,0,0,0,0,0,0,0,0,0,0,0,0,0,0,0,0,0,0,0,0,0,0,0,0,0,0,0,0,0,0,0,0,0,0,0,0,0,0,0,0,0],"sum_hessian":[7.305E4,7.1589E4,1.461E3,7.0128E4,1.461E3,4.28E2,1.033E3,6.8667E4,1.461E3,1.095E3,3.66E2,9.2E1,3.36E2,5.72E2,4.61E2,6.7206E4,1.461E3,7.3E2,7.31E2,2.67E2,8.28E2,7.6E1,2.9E2,6.9E1,2.3E1,1.68E2,1.68E2,2.86E2,2.86E2,3.8E2,8.1E1,6.4284E4,2.922E3,3.65E2,1.096E3,8.6E1,6.44E2,6.34E2,9.7E1,1.29E2,1.38E2,4.32E2,3.96E2,2.9E1,4.7E1,1.57E2,1.33E2,2.3E1,4.6E1,8E0,1.5E1,9E1,7.8E1,8.4E1,8.4E1,1.43E2,1.43E2,2.8E1,2.58E2,9.5E1,2.85E2,6E1,2.1E1,6.2823E4,1.461E3,1.461E3,1.461E3,7.6E1,2.89E2,2.28E2,8.68E2,4.3E1,4.3E1,3.22E2,3.22E2,3.16E2,3.18E2,7.6E1,2.1E1,4.3E1,8.6E1,9.9E1,3.9E1,1.44E2,2.88E2,1.86E2,2.1E2,1.1E1,1.8E1,1.5E1,8E0,2.3E1,2.3E1,2E1,7E1,5E1,2.8E1,3.9E1,4.5E1,5E0,7.9E1,5E1,9.3E1,4.7E1,9.6E1,2.36E2,2.2E1,4.5E1,5E1,9.5E1,1.9E2,2E1,4E1,1.7E1,4E0],"tree_param":{"num_deleted":"0","num_feature":"15","num_nodes":"115","size_leaf_vector":"0"}},{"base_weights":[6.2928186E2,1.2975278E2,1.1281104E3,-2.6501532E2,5.9316437E2,-7.4405023E2,1.3361445E3,4.8040897E2,-9.5767705E3,1.5490499E4,-8.4909515E1,3.8483054E2,-2.436477E3,3.0544978E3,8.4508624E2,-1.3143248E2,1.5144695E4,-6.3005317E3,-1.2839907E4,1.0900897E4,2.0037775E4,-2.2990608E3,7.455229E2,-1.9336744E3,1.5446123E3,-2.0058457E3,-2.8626091E3,2.2730361E3,1.0074939E4,-6.2884736E3,1.2776659E3,3.2601163E2,-5.1600967E3,6.97211E3,1.6489156E4,-5.5543447E3,-6.4868286E3,-9.2734375E3,-1.6371296E4,1.400731E3,1.1623262E4,1.1355215E4,2.3304129E4,1.0106529E2,-1.4283412E4,8.860436E3,-4.1450385E2,-1.569992E3,-2.2910972E3,3.6628503E3,-5.7573584E2,-1.5456132E3,-2.460598E3,-2.4762925E3,-3.2411257E3,3.284016E3,-5.808241E3,6.263087E3,1.1743428E4,-8.358276E3,-4.21008E3,1.3002099E4,9.1073724E2,-2.4195024E2,1.2237226E4,-1.3846163E4,3.533028E3,4.5544873E3,9.258184E3,1.4017034E4,1.8908766E4,-4.9635903E3,-6.072965E3,-7.51944E3,-6.1589873E3,-1.1323767E4,-5.5963687E3,-9.634674E3,-1.9228303E4,-2.328341E3,3.093411E3,1.4162146E4,7.464566E3,8.182783E3,1.4133825E4,2.7090305E4,1.928404E4,-2.8799373E3,1.2012704E4,-9.003564E3,-1.5653936E4,5.8660747E3,1.1842676E4,-1.111509E4,4.0970258E2,-1.248327E3,-2.1655007E3,-3.0028235E3,-2.1337234E3,4.2609297E3,1.3138967E3,-1.9694191E2,-9.5192896E2,-2.1290093E3,-1.4265597E3,-2.0443175E3,-3.4361167E3,-2.5607512E3,-1.7218252E3,-3.3376802E3,-2.3434985E3,2.074254E3,1.173795E4,-3.9604294E3,-6.087618E3,4.3849683E3,8.08578E3,9.360242E3,1.4071215E4,-4.8057812E3,-8.799044E3,-4.849468E3,-3.5609634E3,7.2030938E3,1.4964392E4,-5.1465234E3,1.5375636E3],"categories":[],"categories_nodes":[],"categories_segments":[],"categories_sizes":[],"default_left":[1,1,1,1,1,1,1,1,1,1,1,1,1,1,1,1,1,1,1,1,1,1,1,1,1,1,1,1,1,1,1,1,1,1,1,1,1,1,1,1,1,1,1,1,1,1,1,1,1,1,1,1,1,1,1,1,1,1,1,1,1,1,1,0,0,0,0,0,0,0,0,0,0,0,0,0,0,0,0,0,0,0,0,0,0,0,0,0,0,0,0,0,0,0,0,0,0,0,0,0,0,0,0,0,0,0,0,0,0,0,0,0,0,0,0,0,0,0,0,0,0,0,0,0,0,0,0],"id":12,"left_children":[1,3,5,7,9,11,13,15,17,19,21,23,25,27,29,31,33,35,37,39,41,43,45,47,49,51,53,55,57,59,61,63,65,67,69,71,73,75,77,79,81,83,85,87,89,91,93,95,97,99,101,103,105,107,109,111,113,115,117,119,121,123,125,-1,-1,-1,-1,-1,-1,-1,-1,-1,-1,-1,-1,-1,-1,-1,-1,-1,-1,-1,-1,-1,-1,-1,-1,-1,-1,-1,-1,-1,-1,-1,-1,-1,-1,-1,-1,-1,-1,-1,-1,-1,-1,-1,-1,-1,-1,-1,-1,-1,-1,-1,-1,-1,-1,-1,-1,-1,-1,-1,-1,-1,-1,-1,-1],"loss_changes":[1.8202657E10,6.6776545E9,1.4236631E10,1.3682275E11,1.6961547E11,6.9859005E9,2.775545E10,1.6375395E11,1.5538397E10,1.5037694E10,2.9533123E10,5.9025654E9,2.6272768E8,4.008675E10,7.896216E10,4.0305816E10,7.9170765E9,6.55872E7,9.054822E9,2.4954184E9,1.0115252E10,1.2601633E11,1.0996295E11,9.15543E7,6.5730304E9,1.4918938E8,9.915904E7,5.3777744E10,4.5819904E9,6.258438E9,1.0377034E11,1.0865748E11,1.1036765E11,5.381545E8,3.4853847E9,1.673216E7,1.4969856E8,2.695977E9,6.8589814E9,1.7762989E8,3.48416E9,7.834716E8,3.5110912E9,1.2967658E11,5.1486884E9,1.2977119E10,9.0148585E10,6.740563E7,3.469939E7,1.02275994E9,1.0412227E8,2.2383488E7,1.4160384E8,1.8976512E7,2.3985664E7,5.9794833E10,3.537756E8,7.347712E8,2.6864435E9,1.1038966E9,2.8653978E8,8.2218926E9,8.882764E10,0E0,0E0,0E0,0E0,0E0,0E0,0E0,0E0,0E0,0E0,0E0,0E0,0E0,0E0,0E0,0E0,0E0,0E0,0E0,0E0,0E0,0E0,0E0,0E0,0E0,0E0,0E0,0E0,0E0,0E0,0E0,0E0,0E0,0E0,0E0,0E0,0E0,0E0,0E0,0E0,0E0,0E0,0E0,0E0,0E0,0E0,0E0,0E0,0E0,0E0,0E0,0E0,0E0,0E0,0E0,0E0,0E0,0E0,0E0,0E0,0E0,0E0,0E0,0E0],"parents":[2147483647,0,0,1,1,2,2,3,3,4,4,5,5,6,6,7,7,8,8,9,9,10,10,11,11,12,12,13,13,14,14,15,15,16,16,17,17,18,18,19,19,20,20,21,21,22,22,23,23,24,24,25,25,26,26,27,27,28,28,29,29,30,30,31,31,32,32,33,33,34,34,35,35,36,36,37,37,38,38,39,39,40,40,41,41,42,42,43,43,44,44,45,45,46,46,47,47,48,48,49,49,50,50,51,51,52,52,53,53,54,54,55,55,56,56,57,57,58,58,59,59,60,60,61,61,62,62],"right_children":[2,4,6,8,10,12,14,16,18,20,22,24,26,28,30,32,34,36,38,40,42,44,46,48,50,52,54,56,58,60,62,64,66,68,70,72,74,76,78,80,82,84,86,88,90,92,94,96,98,100,102,104,106,108,110,112,114,116,118,120,122,124,126,-1,-1,-1,-1,-1,-1,-1,-1,-1,-1,-1,-1,-1,-1,-1,-1,-1,-1,-1,-1,-1,-1,-1,-1,-1,-1,-1,-1,-1,-1,-1,-1,-1,-1,-1,-1,-1,-1,-1,-1,-1,-1,-1,-1,-1,-1,-1,-1,-1,-1,-1,-1,-1,-1,-1,-1,-1,-1,-1,-1,-1,-1,-1,-1],"split_conditions":[2.0145E3,2.75E1,5.5E0,2.55E1,2.85E1,3.5E0,1.55E1,2.45E1,2.65E1,2.0135E3,3.45E1,1.5E0,2.0155E3,1.45E1,1.75E1,2.25E1,5.25E1,7.65E1,2.0135E3,2.65E1,1.015E2,3.35E1,3.65E1,2.0155E3,2.5E0,4.5E0,4.5E0,1.35E1,1.125E2,1.65E1,1.85E1,2.15E1,2.35E1,2.0135E3,2.0135E3,2.0135E3,1.435E2,2.335E2,1.105E2,8.5E0,2.355E2,4.95E1,2.345E2,3.25E1,7.65E1,3.55E1,3.75E1,2.395E2,6.35E1,2.915E2,2.0155E3,2.5E0,2.585E2,3.275E2,3.285E2,1.25E1,4.95E1,2.0155E3,2.0155E3,4.15E1,2.0155E3,9.35E1,2.15E1,-7.2585075E1,3.6711677E3,-4.153849E3,1.0599084E3,1.3663462E3,2.777455E3,4.2051104E3,5.67263E3,-1.4890771E3,-1.8218895E3,-2.255832E3,-1.8476963E3,-3.3971301E3,-1.6789106E3,-2.8904023E3,-5.768491E3,-6.985023E2,9.280233E2,4.248644E3,2.2393699E3,2.454835E3,4.240148E3,8.127092E3,5.785212E3,-8.639812E2,3.6038113E3,-2.7010693E3,-4.6961807E3,1.7598225E3,3.552803E3,-3.334527E3,1.22910774E2,-3.744981E2,-6.4965027E2,-9.008471E2,-6.4011707E2,1.2782789E3,3.9416904E2,-5.9082577E1,-2.855787E2,-6.387028E2,-4.2796793E2,-6.132953E2,-1.0308351E3,-7.682254E2,-5.165476E2,-1.0013041E3,-7.0304956E2,6.222762E2,3.5213853E3,-1.1881289E3,-1.8262855E3,1.3154905E3,2.4257341E3,2.8080728E3,4.2213647E3,-1.4417344E3,-2.6397134E3,-1.4548403E3,-1.0682891E3,2.1609282E3,4.489318E3,-1.5439572E3,4.612691E2],"split_indices":[1,0,0,0,0,0,0,0,0,1,0,0,1,0,0,0,5,5,1,5,5,0,0,1,0,0,0,0,5,0,0,0,0,1,1,1,5,5,5,3,5,5,5,0,5,0,0,5,5,5,1,2,5,5,5,0,5,1,1,5,1,5,0,0,0,0,0,0,0,0,0,0,0,0,0,0,0,0,0,0,0,0,0,0,0,0,0,0,0,0,0,0,0,0,0,0,0,0,0,0,0,0,0,0,0,0,0,0,0,0,0,0,0,0,0,0,0,0,0,0,0,0,0,0,0,0,0],"split_type":[0,0,0,0,0,0,0,0,0,0,0,0,0,0,0,0,0,0,0,0,0,0,0,0,0,0,0,0,0,0,0,0,0,0,0,0,0,0,0,0,0,0,0,0,0,0,0,0,0,0,0,0,0,0,0,0,0,0,0,0,0,0,0,0,0,0,0,0,0,0,0,0,0,0,0,0,0,0,0,0,0,0,0,0,0,0,0,0,0,0,0,0,0,0,0,0,0,0,0,0,0,0,0,0,0,0,0,0,0,0,0,0,0,0,0,0,0,0,0,0,0,0,0,0,0,0,0],"sum_hessian":[7.305E4,3.65E4,3.655E4,1.971E4,1.679E4,3.655E3,3.2895E4,1.825E4,1.46E3,7.3E2,1.606E4,2.193E3,1.462E3,7.31E3,2.5585E4,1.752E4,7.3E2,7.3E2,7.3E2,3.65E2,3.65E2,4.38E3,1.168E4,7.31E2,1.462E3,7.3E2,7.32E2,6.579E3,7.31E2,1.462E3,2.4123E4,1.606E4,1.46E3,1.04E2,6.26E2,1.52E2,5.78E2,3.65E2,3.65E2,2.6E1,3.39E2,1.01E2,2.64E2,3.65E3,7.3E2,1.46E3,1.022E4,3.65E2,3.66E2,7.31E2,7.31E2,3.65E2,3.65E2,3.66E2,3.66E2,5.848E3,7.31E2,2.24E2,5.07E2,7.31E2,7.31E2,7.31E2,2.3392E4,1.533E4,7.3E2,7.3E2,7.3E2,5.2E1,5.2E1,3.13E2,3.13E2,7.6E1,7.6E1,1.34E2,4.44E2,2.33E2,1.32E2,1.1E2,2.55E2,8E0,1.8E1,2.09E2,1.3E2,4.9E1,5.2E1,1.33E2,1.31E2,2.92E3,7.3E2,1.52E2,5.78E2,7.3E2,7.3E2,7.3E2,9.49E3,2.39E2,1.26E2,6.3E1,3.03E2,5.82E2,1.49E2,3.65E2,3.66E2,5.9E1,3.06E2,2.58E2,1.07E2,3.27E2,3.9E1,3.28E2,3.8E1,5.117E3,7.31E2,9.8E1,6.33E2,1.12E2,1.12E2,2.53E2,2.54E2,8.2E1,6.49E2,3.65E2,3.66E2,1.86E2,5.45E2,2.193E3,2.1199E4],"tree_param":{"num_deleted":"0","num_feature":"15","num_nodes":"127","size_leaf_vector":"0"}},{"base_weights":[4.4079956E2,7.368057E2,-4.9654193E2,4.0626553E2,1.2958149E4,-3.5738752E3,1.0422988E3,7.000693E2,-1.0163913E4,8.957177E3,1.4540795E4,2.7935513E1,-4.7742114E3,7.7347905E3,8.5565865E1,2.8871085E2,7.6906714E3,-7.7851245E3,-1.2525567E4,7.941422E3,9.637865E3,1.3577829E4,1.73561E4,-1.4907731E3,3.8895853E2,-5.9649634E3,-2.3902563E3,4.0882275E3,9.142484E3,-5.8735854E3,1.0793145E3,6.806715E2,-1.2637609E4,4.719601E3,1.065648E4,-2.495389E3,-8.799307E3,-7.165785E3,-1.3543952E4,8.271885E3,6.784566E3,1.116172E4,9.209912E3,1.1903383E4,1.4390691E4,1.7894104E4,9.50519E3,-1.7147927E3,-8.040279E2,5.8254425E2,-3.1174705E3,-3.735104E3,-8.190743E3,-3.1175928E3,-1.660648E3,3.1979224E3,5.832498E3,9.422746E3,4.506318E3,-3.8979358E3,-6.8383047E3,7.81177E3,-2.6806165E2,3.3809555E2,1.1635373E4,-8.038726E3,-1.4160447E4,9.909917E2,5.3234526E3,4.7890415E3,1.1898003E4,-1.2172791E2,-4.82746E3,-6.0191797E3,-8.952165E3,-1.2422766E4,-1.5263041E4,7.157794E3,9.770356E3,1.2815303E4,1.0751873E4,1.5890456E4,1.2836001E4,1.4540942E4,1.8477447E4,-1.9034967E3,-1.2195615E3,-9.4443866E2,-3.7003845E2,-1.2008133E1,1.1760582E3,-2.5404343E3,-4.4954814E3,-3.4390806E3,-5.52329E3,-6.046568E3,-8.875444E3,-1.6105162E3,-3.4050715E3,-1.0588193E3,-2.7890544E3,3.9562026E3,8.98714E2,6.3654956E3,4.0973193E3,1.0195763E4,8.537338E3,4.993351E3,2.923386E3,-5.2278735E3,6.932201E1,-7.727844E3,-4.605979E3,2.5217378E3,9.829399E3,-1.1110767E3,3.1024521E3],"categories":[],"categories_nodes":[],"categories_segments":[],"categories_sizes":[],"default_left":[1,1,1,1,1,1,1,1,1,1,1,1,1,1,1,1,1,1,1,1,1,1,1,1,1,1,1,1,1,1,1,1,1,1,1,1,1,0,1,0,0,0,1,1,1,1,0,1,1,1,1,1,1,1,1,1,1,1,1,1,1,1,1,0,0,0,0,0,0,0,0,0,0,0,0,0,0,0,0,0,0,0,0,0,0,0,0,0,0,0,0,0,0,0,0,0,0,0,0,0,0,0,0,0,0,0,0,0,0,0,0,0,0,0,0,0,0],"id":13,"left_children":[1,3,5,7,9,11,13,15,17,19,21,23,25,27,29,31,33,35,37,39,41,43,45,47,49,51,53,55,57,59,61,63,65,67,69,71,73,-1,75,-1,-1,-1,77,79,81,83,-1,85,87,89,91,93,95,97,99,101,103,105,107,109,111,113,115,-1,-1,-1,-1,-1,-1,-1,-1,-1,-1,-1,-1,-1,-1,-1,-1,-1,-1,-1,-1,-1,-1,-1,-1,-1,-1,-1,-1,-1,-1,-1,-1,-1,-1,-1,-1,-1,-1,-1,-1,-1,-1,-1,-1,-1,-1,-1,-1,-1,-1,-1,-1,-1,-1],"loss_changes":[2.0269015E10,2.242718E11,8.303171E10,1.6788737E11,9.12733E9,2.5270305E10,7.484315E10,1.5124798E11,8.1158144E9,2.1178163E8,2.6000916E9,8.02178E8,1.2430598E10,7.467426E9,6.057552E10,2.516924E11,2.5706086E10,3.8996746E9,3.8984417E9,1.0015744E7,5.697536E7,8.958116E8,9.407775E8,4.185152E7,8.041514E8,1.4476763E10,7.7066394E8,6.164982E8,1.3270467E9,2.7598397E9,7.952886E10,1.809344E11,1.0125066E10,3.2864563E9,1.0593042E10,6.5814234E8,2.0662272E8,0E0,9.9382886E8,0E0,0E0,0E0,1.5663411E8,1.3733069E8,1.0154803E9,2.1055078E8,0E0,1.7396992E7,3.977032E6,3.9558723E8,3.7879616E7,7.5490714E8,2.0927365E9,3.112238E8,4.941536E8,4.7240474E8,1.0062234E8,5.925929E8,3.320064E7,2.5434941E9,1.9124183E9,1.5579611E10,2.076267E10,0E0,0E0,0E0,0E0,0E0,0E0,0E0,0E0,0E0,0E0,0E0,0E0,0E0,0E0,0E0,0E0,0E0,0E0,0E0,0E0,0E0,0E0,0E0,0E0,0E0,0E0,0E0,0E0,0E0,0E0,0E0,0E0,0E0,0E0,0E0,0E0,0E0,0E0,0E0,0E0,0E0,0E0,0E0,0E0,0E0,0E0,0E0,0E0,0E0,0E0,0E0,0E0,0E0,0E0],"parents":[2147483647,0,0,1,1,2,2,3,3,4,4,5,5,6,6,7,7,8,8,9,9,10,10,11,11,12,12,13,13,14,14,15,15,16,16,17,17,18,18,19,19,20,20,21,21,22,22,23,23,24,24,25,25,26,26,27,27,28,28,29,29,30,30,31,31,32,32,33,33,34,34,35,35,36,36,38,38,42,42,43,43,44,44,45,45,47,47,48,48,49,49,50,50,51,51,52,52,53,53,54,54,55,55,56,56,57,57,58,58,59,59,60,60,61,61,62,62],"right_children":[2,4,6,8,10,12,14,16,18,20,22,24,26,28,30,32,34,36,38,40,42,44,46,48,50,52,54,56,58,60,62,64,66,68,70,72,74,-1,76,-1,-1,-1,78,80,82,84,-1,86,88,90,92,94,96,98,100,102,104,106,108,110,112,114,116,-1,-1,-1,-1,-1,-1,-1,-1,-1,-1,-1,-1,-1,-1,-1,-1,-1,-1,-1,-1,-1,-1,-1,-1,-1,-1,-1,-1,-1,-1,-1,-1,-1,-1,-1,-1,-1,-1,-1,-1,-1,-1,-1,-1,-1,-1,-1,-1,-1,-1,-1,-1,-1,-1],"split_conditions":[3.85E1,3.75E1,4.25E1,3.65E1,1.045E2,3.95E1,4.35E1,3.45E1,2.0145E3,4.35E1,2.0155E3,7.05E1,4.15E1,1.025E2,4.45E1,3.35E1,3.55E1,2.5E0,5.95E1,2.0155E3,2.85E1,2.0135E3,3.485E2,2.0155E3,3.505E2,4.05E1,2.0145E3,6.85E1,3.505E2,4.5E0,4.55E1,3.25E1,2.0135E3,5.15E1,6.45E1,2.0135E3,7.65E1,-2.1497356E3,2.475E2,2.4815654E3,2.0353699E3,3.348516E3,2.0135E3,2.445E2,2.0145E3,1.445E2,2.8515571E3,5.05E1,2.15E1,2.0145E3,2.0155E3,3.145E2,8.95E1,2.5E0,2.395E2,2.0155E3,2.0155E3,2.335E2,2.0155E3,2.0155E3,2.955E2,1.015E2,4.95E1,1.0142867E2,3.490612E3,-2.411618E3,-4.2481343E3,2.9729752E2,1.5970359E3,1.4367125E3,3.5694011E3,-3.6518375E1,-1.448238E3,-1.805754E3,-2.6856497E3,-3.7268298E3,-4.5789126E3,2.1473384E3,2.931107E3,3.844591E3,3.225562E3,4.767137E3,3.8508005E3,4.3622827E3,5.5432344E3,-5.71049E2,-3.6586847E2,-2.833316E2,-1.1101154E2,-3.60244E0,3.5281747E2,-7.621303E2,-1.3486445E3,-1.0317242E3,-1.656987E3,-1.8139705E3,-2.6626333E3,-4.8315488E2,-1.0215215E3,-3.176458E2,-8.367164E2,1.1868608E3,2.696142E2,1.9096488E3,1.2291958E3,3.058729E3,2.5612014E3,1.4980054E3,8.770158E2,-1.5683622E3,2.0796602E1,-2.3183533E3,-1.3817937E3,7.5652136E2,2.9488198E3,-3.33323E2,9.3073566E2],"split_indices":[0,0,0,0,5,0,0,0,1,5,1,5,0,5,0,0,0,2,5,1,6,1,5,1,5,0,1,5,5,2,0,0,1,5,5,1,5,0,5,0,0,0,1,5,1,5,0,5,3,1,1,5,5,2,5,1,1,5,1,1,5,5,0,0,0,0,0,0,0,0,0,0,0,0,0,0,0,0,0,0,0,0,0,0,0,0,0,0,0,0,0,0,0,0,0,0,0,0,0,0,0,0,0,0,0,0,0,0,0,0,0,0,0,0,0,0,0],"split_type":[0,0,0,0,0,0,0,0,0,0,0,0,0,0,0,0,0,0,0,0,0,0,0,0,0,0,0,0,0,0,0,0,0,0,0,0,0,0,0,0,0,0,0,0,0,0,0,0,0,0,0,0,0,0,0,0,0,0,0,0,0,0,0,0,0,0,0,0,0,0,0,0,0,0,0,0,0,0,0,0,0,0,0,0,0,0,0,0,0,0,0,0,0,0,0,0,0,0,0,0,0,0,0,0,0,0,0,0,0,0,0,0,0,0,0,0,0],"sum_hessian":[7.305E4,5.5518E4,1.7532E4,5.4057E4,1.461E3,5.844E3,1.1688E4,5.2596E4,1.461E3,4.16E2,1.045E3,1.461E3,4.383E3,1.461E3,1.0227E4,4.9674E4,2.922E3,7.3E2,7.31E2,1.72E2,2.44E2,7.83E2,2.62E2,2.8E2,1.181E3,2.922E3,1.461E3,4.08E2,1.053E3,1.461E3,8.766E3,4.8213E4,1.461E3,1.461E3,1.461E3,1.18E2,6.12E2,1.18E2,6.13E2,1.29E2,4.3E1,4.8E1,1.96E2,2.61E2,5.22E2,2.44E2,1.8E1,2.1E2,7E1,1.12E3,6.1E1,1.461E3,1.461E3,7.3E2,7.31E2,2.72E2,1.36E2,9.92E2,6.1E1,4.81E2,9.8E2,1.461E3,7.305E3,4.6752E4,1.461E3,3.65E2,1.096E3,2.04E2,1.257E3,2.56E2,1.205E3,5.9E1,5.9E1,3.4E1,5.78E2,3.76E2,2.37E2,4.5E1,1.51E2,1.4E2,1.21E2,2.61E2,2.61E2,4E1,2.04E2,1.5E2,6E1,5.2E1,1.8E1,5.6E2,5.6E2,4.5E1,1.6E1,1.256E3,2.05E2,3.56E2,1.105E3,1.18E2,6.12E2,4.78E2,2.53E2,2.04E2,6.8E1,1.02E2,3.4E1,5.24E2,4.68E2,4.5E1,1.6E1,3.6E2,1.21E2,6.99E2,2.81E2,4.04E2,1.057E3,5.844E3,1.461E3],"tree_param":{"num_deleted":"0","num_feature":"15","num_nodes":"117","size_leaf_vector":"0"}},{"base_weights":[3.0893594E2,7.5697205E2,-3.0978506E2,2.4865028E1,1.0637026E4,-1.04583125E4,1.9798184E2,5.380888E2,-1.3310194E4,1.5485611E4,5.781167E3,-7.5343765E3,-1.1897628E4,4.3967266E3,-2.315514E1,3.502826E0,4.635646E3,-9.108014E3,-1.7488451E4,1.0779438E4,2.01642E4,2.2477478E3,6.9547773E3,-6.7086274E3,-8.884206E3,-1.0958203E4,-1.2810855E4,1.6785074E3,4.8361846E3,-8.307734E3,4.3739764E2,5.3859033E2,-1.1760738E4,9.467496E3,-5.02792E3,-3.5209004E3,-1.056867E4,-1.1904821E4,-1.9864418E4,7.547829E3,1.3981595E4,1.1757242E4,2.325937E4,3.9979126E3,-8.4839026E2,2.338889E3,7.931475E3,-5.8720283E3,-7.5013794E3,-1.0505363E4,-8.270548E3,-1.0423706E4,-1.1447973E4,-1.0405913E4,-1.2934086E4,1.1310592E3,2.1142083E3,5.326944E3,2.7105496E3,-7.352516E3,-9.250298E3,8.1471475E3,-1.642679E1,1.1112954E1,1.160803E4,-8.310433E3,-1.2863811E4,3.9850415E3,1.4943475E4,-4.521806E3,-5.526473E3,-1.6533895E3,-5.3426855E3,-1.3781578E4,-6.709671E3,-1.0703573E4,-1.4395925E4,-2.4368889E4,-1.5607015E4,3.5489272E3,8.9365625E3,8.495301E3,1.7151094E4,9.02179E3,1.4540688E4,2.8020312E4,1.8284084E4,6.918497E2,6.50333E3,-1.4769832E3,1.1817618E3,1.3594672E3,4.2466816E3,1.0685935E4,4.395804E3,-6.4795967E3,-5.188199E3,-7.019444E3,-8.701203E3,6.934714E2,1.2649314E3,2.51897E3,1.672355E3,4.920407E3,6.522568E3,3.2380117E3,1.497822E3,-5.194365E3,-7.910106E3,-8.508918E3,-9.473145E3,4.9279834E3,1.1350783E4,-8.850882E3,5.3608167E2],"categories":[],"categories_nodes":[],"categories_segments":[],"categories_sizes":[],"default_left":[1,1,1,1,1,1,1,1,1,1,1,1,1,1,1,1,1,1,1,1,1,1,1,1,1,1,1,1,1,1,1,1,1,1,1,1,1,1,1,1,1,1,1,1,1,1,1,1,0,0,1,0,0,0,0,1,1,1,1,1,1,1,1,0,0,0,0,0,0,0,0,0,0,0,0,0,0,0,0,0,0,0,0,0,0,0,0,0,0,0,0,0,0,0,0,0,0,0,0,0,0,0,0,0,0,0,0,0,0,0,0,0,0,0,0],"id":14,"left_children":[1,3,5,7,9,11,13,15,17,19,21,23,25,27,29,31,33,35,37,39,41,43,45,47,49,51,53,55,57,59,61,63,65,67,69,71,73,75,77,79,81,83,85,87,89,91,93,95,-1,-1,97,-1,-1,-1,-1,99,101,103,105,107,109,111,113,-1,-1,-1,-1,-1,-1,-1,-1,-1,-1,-1,-1,-1,-1,-1,-1,-1,-1,-1,-1,-1,-1,-1,-1,-1,-1,-1,-1,-1,-1,-1,-1,-1,-1,-1,-1,-1,-1,-1,-1,-1,-1,-1,-1,-1,-1,-1,-1,-1,-1,-1,-1],"loss_changes":[2.0250655E10,3.064728E11,1.5810907E11,2.6998415E11,6.872973E10,6.063145E9,2.7131734E10,8.321037E10,2.5510216E10,3.197331E10,6.0470764E9,4.809892E8,6.986465E8,1.7383055E9,1.0592152E11,2.1154008E11,2.0474929E11,5.9283743E9,9.474605E9,7.458939E9,1.8773869E10,1.9866552E9,4.9270866E9,1.5823258E8,9.317888E7,8.68352E6,1.0633216E7,4.6505984E7,1.2978729E9,1.2483052E9,9.201699E10,1.8767897E11,5.4573793E9,8.769416E10,3.4391245E8,5.117038E8,7.08633E9,5.0724045E8,9.438462E9,2.0008325E9,6.2185964E9,1.3840015E9,1.2136579E10,1.9337382E9,1.7147194E8,3.548539E8,8.766702E9,2.994944E7,0E0,0E0,1.2198912E7,0E0,0E0,0E0,0E0,4.570816E6,1.5996896E7,4.641792E8,1.4739098E8,8.3857E8,4.0329216E7,1.5021711E10,1.212418E11,0E0,0E0,0E0,0E0,0E0,0E0,0E0,0E0,0E0,0E0,0E0,0E0,0E0,0E0,0E0,0E0,0E0,0E0,0E0,0E0,0E0,0E0,0E0,0E0,0E0,0E0,0E0,0E0,0E0,0E0,0E0,0E0,0E0,0E0,0E0,0E0,0E0,0E0,0E0,0E0,0E0,0E0,0E0,0E0,0E0,0E0,0E0,0E0,0E0,0E0,0E0,0E0],"parents":[2147483647,0,0,1,1,2,2,3,3,4,4,5,5,6,6,7,7,8,8,9,9,10,10,11,11,12,12,13,13,14,14,15,15,16,16,17,17,18,18,19,19,20,20,21,21,22,22,23,23,24,24,25,25,26,26,27,27,28,28,29,29,30,30,31,31,32,32,33,33,34,34,35,35,36,36,37,37,38,38,39,39,40,40,41,41,42,42,43,43,44,44,45,45,46,46,47,47,50,50,55,55,56,56,57,57,58,58,59,59,60,60,61,61,62,62],"right_children":[2,4,6,8,10,12,14,16,18,20,22,24,26,28,30,32,34,36,38,40,42,44,46,48,50,52,54,56,58,60,62,64,66,68,70,72,74,76,78,80,82,84,86,88,90,92,94,96,-1,-1,98,-1,-1,-1,-1,100,102,104,106,108,110,112,114,-1,-1,-1,-1,-1,-1,-1,-1,-1,-1,-1,-1,-1,-1,-1,-1,-1,-1,-1,-1,-1,-1,-1,-1,-1,-1,-1,-1,-1,-1,-1,-1,-1,-1,-1,-1,-1,-1,-1,-1,-1,-1,-1,-1,-1,-1,-1,-1,-1,-1,-1,-1],"split_conditions":[2.95E1,2.75E1,3.05E1,2.65E1,2.85E1,1.215E2,3.15E1,2.35E1,2.0145E3,2.0145E3,2.0135E3,7.65E1,2.0145E3,5.15E1,3.25E1,2.25E1,2.55E1,7.65E1,1.105E2,2.0135E3,9.95E1,2.335E2,6.45E1,2.0145E3,2.0135E3,2.0135E3,1.355E2,2.35E1,3.065E2,2.0145E3,3.35E1,2.15E1,8.95E1,2.45E1,2.0145E3,2.0135E3,2.335E2,7.65E1,2.335E2,9.55E1,1.355E2,5.15E1,2.345E2,1.015E2,1.15E1,2.0155E3,2.335E2,2.0135E3,-2.2504138E3,-3.1516091E3,8.95E1,-3.127112E3,-3.4343918E3,-3.1217742E3,-3.8802258E3,2.0135E3,2.0145E3,2.0155E3,3.475E2,7.65E1,8.95E1,2.0145E3,3.45E1,3.3338864E0,3.4824092E3,-2.49313E3,-3.8591433E3,1.1955125E3,4.4830425E3,-1.3565419E3,-1.657942E3,-4.9601688E2,-1.6028058E3,-4.1344736E3,-2.0129014E3,-3.211072E3,-4.318778E3,-7.310667E3,-4.6821045E3,1.0646782E3,2.6809688E3,2.5485903E3,5.145328E3,2.706537E3,4.3622065E3,8.406094E3,5.4852256E3,2.0755492E2,1.9509991E3,-4.4309497E2,3.5452856E2,4.0784018E2,1.2740045E3,3.2057805E3,1.3187413E3,-1.943879E3,-1.5564598E3,-2.1058333E3,-2.610361E3,2.0804143E2,3.7947943E2,7.5569104E2,5.017065E2,1.4761222E3,1.9567704E3,9.7140356E2,4.4934662E2,-1.5583097E3,-2.373032E3,-2.5526755E3,-2.8419434E3,1.478395E3,3.405235E3,-2.6552646E3,1.6082451E2],"split_indices":[0,0,0,0,0,5,0,0,1,1,1,5,1,5,0,0,0,5,5,1,5,5,5,1,1,1,5,5,5,1,0,0,5,0,1,1,5,5,5,5,5,5,5,5,2,1,5,1,0,0,5,0,0,0,0,1,1,1,5,5,5,1,0,0,0,0,0,0,0,0,0,0,0,0,0,0,0,0,0,0,0,0,0,0,0,0,0,0,0,0,0,0,0,0,0,0,0,0,0,0,0,0,0,0,0,0,0,0,0,0,0,0,0,0,0],"split_type":[0,0,0,0,0,0,0,0,0,0,0,0,0,0,0,0,0,0,0,0,0,0,0,0,0,0,0,0,0,0,0,0,0,0,0,0,0,0,0,0,0,0,0,0,0,0,0,0,0,0,0,0,0,0,0,0,0,0,0,0,0,0,0,0,0,0,0,0,0,0,0,0,0,0,0,0,0,0,0,0,0,0,0,0,0,0,0,0,0,0,0,0,0,0,0,0,0,0,0,0,0,0,0,0,0,0,0,0,0,0,0,0,0,0,0],"sum_hessian":[7.305E4,4.2369E4,3.0681E4,3.9447E4,2.922E3,1.461E3,2.922E4,3.7986E4,1.461E3,1.461E3,1.461E3,4.84E2,9.77E2,1.461E3,2.7759E4,3.3603E4,4.383E3,7.3E2,7.31E2,7.3E2,7.31E2,3.65E2,1.096E3,3.04E2,1.8E2,4.88E2,4.89E2,2.04E2,1.257E3,1.461E3,2.6298E4,3.2142E4,1.461E3,2.922E3,1.461E3,1.52E2,5.78E2,2.2E2,5.11E2,3.65E2,3.65E2,1.98E2,5.33E2,2.33E2,1.32E2,1.92E2,9.04E2,1.52E2,1.52E2,4.5E1,1.35E2,2.44E2,2.44E2,2.8E1,4.61E2,9.2E1,1.12E2,1.02E3,2.37E2,7.3E2,7.31E2,1.461E3,2.4837E4,3.0681E4,1.461E3,3.56E2,1.105E3,1.461E3,1.461E3,7.3E2,7.31E2,7.6E1,7.6E1,3.14E2,2.64E2,1.52E2,6.8E1,2.46E2,2.65E2,9.5E1,2.7E2,1.35E2,2.3E2,1.02E2,9.6E1,2.7E2,2.63E2,1.01E2,1.32E2,1.01E2,3.1E1,1.28E2,6.4E1,5.07E2,3.97E2,7.6E1,7.6E1,3.9E1,9.6E1,2.3E1,6.9E1,5.6E1,5.6E1,7.65E2,2.55E2,1.64E2,7.3E1,1.52E2,5.78E2,1.78E2,5.53E2,7.3E2,7.31E2,1.461E3,2.3376E4],"tree_param":{"num_deleted":"0","num_feature":"15","num_nodes":"115","size_leaf_vector":"0"}},{"base_weights":[2.1605406E2,9.329633E2,-9.1205E1,-4.3046008E2,2.9779143E3,-4.6177803E3,1.8322299E2,2.9278183E2,-6.2126377E3,2.2601995E3,6.562488E3,-5.8751304E3,-3.357272E3,9.087784E3,-9.523296E1,-6.417501E2,6.83047E3,-6.7235117E3,-4.970905E3,3.9464712E3,-4.482973E3,4.4470034E3,7.9015796E3,-3.6256626E3,-6.204231E3,-3.6077637E3,-2.6000613E3,3.1453357E3,9.962223E3,-4.561288E3,3.668695E2,4.565052E2,-1.0810547E3,4.0173528E3,7.762804E3,-5.841183E3,-7.0097046E3,-6.4070195E3,-4.475328E3,2.3950916E3,8.595788E3,-3.432853E3,-4.7556875E3,2.4214604E3,5.1023755E3,1.0666703E4,5.5896333E3,-3.136775E3,-4.996421E3,-6.481594E3,-3.6028577E3,-3.758109E3,-1.5405266E3,-3.3863862E3,-2.127905E3,2.6604497E3,4.63785E3,1.150601E4,5.653078E3,-6.272844E3,-3.7036572E3,8.128004E3,8.949424E1,-1.77464E3,2.6873381E3,-1.6247542E3,-2.6522855E2,4.951069E3,1.7704164E3,8.469199E3,3.8610535E3,-4.9005054E3,-7.051272E3,-6.824641E3,-7.7476123E3,-4.336942E3,-5.4901343E3,4.435116E3,1.3739109E3,3.3697754E3,9.765974E3,-2.699073E3,-3.8506553E3,-5.5218687E3,-4.4565234E3,1.9838868E3,3.6426084E3,2.974637E3,5.800181E3,8.640533E3,1.1309335E4,6.8380884E3,2.4906753E3,-4.331072E3,-2.500322E3,-5.3383076E3,-6.8556206E3,-3.1730117E3,-4.7529404E3,-2.1127769E3,-3.981119E3,-2.0023257E3,-5.754389E2,-2.2154348E3,-3.7857744E3,-1.298965E3,-3.0513977E3,2.3710854E3,3.4409966E3,8.824291E3,1.28306045E4,7.846909E3,4.5888145E3,-3.7534963E3,-7.08038E3,-1.3835189E3,-6.021262E3,4.9921436E3,1.1248476E4,-8.236861E3,3.9807877E2],"categories":[],"categories_nodes":[],"categories_segments":[],"categories_sizes":[],"default_left":[1,1,1,1,1,1,1,1,1,1,1,1,1,1,1,1,1,1,1,1,1,1,1,1,1,1,1,1,1,1,1,1,1,1,1,1,1,0,1,1,1,1,1,1,1,1,1,1,0,1,1,1,1,1,1,1,0,1,1,1,1,